{"learner":{"attributes":{"scikit_learn":"{\"_estimator_type\": \"regressor\"}"},"feature_names":["month","year","trend","avg_amount","transaction_count","std_amount","lag_1_total","lag_1_count","lag_2_total","lag_2_count","lag_3_total","lag_3_count","rolling_2_mean","rolling_2_std","rolling_3_mean","rolling_3_std","mom_growth","cat_Bills","cat_Education","cat_Entertainment","cat_Food","cat_Health","cat_Shopping","cat_Transport"],"feature_types":["int","int","int","float","int","float","float","float","float","float","float","float","float","float","float","float","float","i","i","i","i","i","i","i"],"gradient_booster":{"model":{"gbtree_model_param":{"num_parallel_tree":"1","num_trees":"100"},"iteration_indptr":[0,1,2,3,4,5,6,7,8,9,10,11,12,13,14,15,16,17,18,19,20,21,22,23,24,25,26,27,28,29,30,31,32,33,34,35,36,37,38,39,40,41,42,43,44,45,46,47,48,49,50,51,52,53,54,55,56,57,58,59,60,61,62,63,64,65,66,67,68,69,70,71,72,73,74,75,76,77,78,79,80,81,82,83,84,85,86,87,88,89,90,91,92,93,94,95,96,97,98,99,100],"tree_info":[0,0,0,0,0,0,0,0,0,0,0,0,0,0,0,0,0,0,0,0,0,0,0,0,0,0,0,0,0,0,0,0,0,0,0,0,0,0,0,0,0,0,0,0,0,0,0,0,0,0,0,0,0,0,0,0,0,0,0,0,0,0,0,0,0,0,0,0,0,0,0,0,0,0,0,0,0,0,0,0,0,0,0,0,0,0,0,0,0,0,0,0,0,0,0,0,0,0,0,0],"trees":[{"base_weights":[1.0737338E2,-9.220002E3,1.1077598E4,-1.1249043E3,-3.548152E3,-2.5122737E2,1.3039507E4,-5.573619E2,-5.93749E2,8.002162E2,-2.7542227E2,1.1903126E3,1.5458492E4,-1.4145859E3,1.7552177E2,1.690332E1,1.3167905E2,-2.8764035E2,3.9427716E2,1.6547549E4,5.876319E2,-2.760231E2,-2.0816202E2,2.5655762E1,-2.3120264E1,9.420122E2,1.8186113E3,-3.5650246E1,-5.753223E0],"categories":[],"categories_nodes":[],"categories_segments":[],"categories_sizes":[],"default_left":[0,0,0,0,0,0,0,0,0,0,0,0,0,0,0,0,0,0,0,0,0,0,0,0,0,0,0,0,0],"id":0,"left_children":[1,3,5,-1,7,9,11,-1,13,15,-1,17,19,21,-1,23,-1,-1,-1,25,-1,27,-1,-1,-1,-1,-1,-1,-1],"loss_changes":[7.571744E9,4.2042317E8,7.589645E8,0E0,6.84992E7,1.7994524E7,8.1282765E8,0E0,1.4051618E7,2.0009375E6,0E0,7.8501816E7,1.5321344E8,3.222726E6,0E0,2.3769577E5,0E0,0E0,0E0,7.393843E7,0E0,3.224164E4,0E0,0E0,0E0,0E0,0E0,0E0,0E0],"parents":[2147483647,0,0,1,1,2,2,4,4,5,5,6,6,8,8,9,9,11,11,12,12,13,13,15,15,19,19,21,21],"right_children":[2,4,6,-1,8,10,12,-1,14,16,-1,18,20,22,-1,24,-1,-1,-1,26,-1,28,-1,-1,-1,-1,-1,-1,-1],"split_conditions":[1.335298E3,8.68782E3,-4.3690282E-1,-1.1249043E3,1.2139145E4,1.1E1,1.22381E4,-5.573619E2,1.109216E4,3.227415E4,-2.7542227E2,6.7709824E3,3.904692E4,7.52641E3,1.7552177E2,3E0,1.3167905E2,-2.8764035E2,3.9427716E2,-2.005835E-1,5.876319E2,3E0,-2.0816202E2,2.5655762E1,-2.3120264E1,9.420122E2,1.8186113E3,-3.5650246E1,-5.753223E0],"split_indices":[3,6,16,0,12,0,6,0,8,6,0,15,10,8,0,0,0,0,0,16,0,0,0,0,0,0,0,0,0],"split_type":[0,0,0,0,0,0,0,0,0,0,0,0,0,0,0,0,0,0,0,0,0,0,0,0,0,0,0,0,0],"sum_hessian":[7.2E1,3.9E1,3.3E1,2.8E1,1.1E1,5E0,2.8E1,6E0,5E0,4E0,1E0,5E0,2.3E1,4E0,1E0,2E0,2E0,2E0,3E0,2E1,3E0,2E0,2E0,1E0,1E0,5E0,1.5E1,1E0,1E0],"tree_param":{"num_deleted":"0","num_feature":"24","num_nodes":"29","size_leaf_vector":"1"}},{"base_weights":[7.983886E2,-8.818819E3,1.1217118E4,-1.0450076E3,-3.2062957E3,4.514916E3,1.88938E4,-4.5608115E3,1.4745122E2,-1.5628053E3,6.6450103E3,1.2190408E3,2.2753062E3,-3.3867725E1,-5.1155913E3,1.3033734E3,-3.321738E2,1.0436177E3,7.9583905E2,-6.207015E2,-2.7452698E2,2.1747021E2,-2.1964209E1,2.437295E1,1.2290039E2],"categories":[],"categories_nodes":[],"categories_segments":[],"categories_sizes":[],"default_left":[0,0,0,0,0,0,0,0,0,0,0,0,0,0,0,0,0,0,0,0,0,0,0,0,0],"id":1,"left_children":[1,3,5,-1,7,9,11,13,-1,15,17,-1,-1,-1,19,21,-1,23,-1,-1,-1,-1,-1,-1,-1],"loss_changes":[7.3132564E9,3.1440128E8,1.7154693E9,0E0,7.0127256E7,2.693072E8,1.3655347E8,1.7006304E7,0E0,3.457796E7,1.0204582E8,0E0,0E0,0E0,1.069232E6,4.4587975E6,0E0,2.93608E5,0E0,0E0,0E0,0E0,0E0,0E0,0E0],"parents":[2147483647,0,0,1,1,2,2,4,4,5,5,6,6,7,7,9,9,10,10,14,14,15,15,17,17],"right_children":[2,4,6,-1,8,10,12,14,-1,16,18,-1,-1,-1,20,22,-1,24,-1,-1,-1,-1,-1,-1,-1],"split_conditions":[8.653749E2,1E0,1.2E1,-1.0450076E3,1.3E1,8E0,1.5E1,3E0,1.4745122E2,1E1,-4.3690282E-1,1.2190408E3,2.2753062E3,-3.3867725E1,1.1E1,4E0,-3.321738E2,3E0,7.9583905E2,-6.207015E2,-2.7452698E2,2.1747021E2,-2.1964209E1,2.437295E1,1.2290039E2],"split_indices":[5,21,4,0,4,4,4,0,0,0,16,0,0,0,4,0,0,0,0,0,0,0,0,0,0],"split_type":[0,0,0,0,0,0,0,0,0,0,0,0,0,0,0,0,0,0,0,0,0,0,0,0,0],"sum_hessian":[7.1E1,3.7E1,3.4E1,2.8E1,9E0,1.9E1,1.5E1,7E0,2E0,5E0,1.4E1,7E0,8E0,1E0,6E0,2E0,3E0,3E0,1.1E1,3E0,3E0,1E0,1E0,1E0,2E0],"tree_param":{"num_deleted":"0","num_feature":"24","num_nodes":"25","size_leaf_vector":"1"}},{"base_weights":[-1.1255758E2,-7.6458945E3,1.1331123E4,-9.809821E2,-4.0138901E3,4.3035234E3,1.7549355E4,-5.2665986E3,1.3740617E2,-1.2470763E3,7.5257544E3,4.667491E2,1.818123E3,-3.2174366E1,-5.6222227E3,-3.2948898E2,6.00553E2,2.7945854E3,9.4255743E2,-5.985193E2,-2.4172571E2,1.5255534E1,1.17822266E2,3.3645255E2,5.423828E1,2.3154297E1,-2.0865967E1],"categories":[],"categories_nodes":[],"categories_segments":[],"categories_sizes":[],"default_left":[0,0,0,0,0,0,0,0,0,0,0,0,0,0,0,0,0,0,0,0,0,0,0,0,0,0,0],"id":2,"left_children":[1,3,5,-1,7,9,11,13,-1,15,17,-1,-1,-1,19,-1,21,23,-1,-1,-1,25,-1,-1,-1,-1,-1],"loss_changes":[5.862646E9,2.8285978E8,1.1043556E9,0E0,1.2197866E8,2.5977957E8,2.9095424E7,2.281024E7,0E0,2.4680356E7,5.455475E7,0E0,0E0,0E0,6.55264E5,0E0,1.33446E6,3.30962E6,0E0,0E0,0E0,1.9360381E5,0E0,0E0,0E0,0E0,0E0],"parents":[2147483647,0,0,1,1,2,2,4,4,5,5,6,6,7,7,9,9,10,10,14,14,16,16,17,17,21,21],"right_children":[2,4,6,-1,8,10,12,14,-1,16,18,-1,-1,-1,20,-1,22,24,-1,-1,-1,26,-1,-1,-1,-1,-1],"split_conditions":[8.653749E2,4.1968292E2,1.2E1,-9.809821E2,1.3E1,9E0,2.1511138E3,5E0,1.3740617E2,6E0,2.4965266E3,4.667491E2,1.818123E3,-3.2174366E1,5.9882196E2,-3.2948898E2,1E1,2E0,9.4255743E2,-5.985193E2,-2.4172571E2,3E0,1.17822266E2,3.3645255E2,5.423828E1,2.3154297E1,-2.0865967E1],"split_indices":[5,5,4,0,4,4,3,9,0,4,3,0,0,0,5,0,2,2,0,0,0,2,0,0,0,0,0],"split_type":[0,0,0,0,0,0,0,0,0,0,0,0,0,0,0,0,0,0,0,0,0,0,0,0,0,0,0],"sum_hessian":[6.6E1,4E1,2.6E1,2.4E1,1.6E1,1.3E1,1.3E1,1.3E1,3E0,5E0,8E0,1E0,1.2E1,1E0,1.2E1,2E0,3E0,3E0,5E0,1E1,2E0,2E0,1E0,2E0,1E0,1E0,1E0],"tree_param":{"num_deleted":"0","num_feature":"24","num_nodes":"27","size_leaf_vector":"1"}},{"base_weights":[4.8580325E2,-6.692405E3,1.0605455E4,-8.9121533E2,-3.6639668E3,4.384219E3,1.5891875E4,-5.286754E3,1.544591E3,-2.8254907E2,6.130978E3,1.2338201E4,2.0942856E3,-6.3025226E2,-2.3740906E3,6.2024E1,2.2621953E2,3.3908154E2,7.276533E3,6.028863E2,1.3628118E3,-2.726646E2,-3.0565674E1,2.0763994E2,7.667E2],"categories":[],"categories_nodes":[],"categories_segments":[],"categories_sizes":[],"default_left":[0,0,0,0,0,0,0,0,0,0,0,0,0,0,0,0,0,0,0,0,0,0,0,0,0],"id":3,"left_children":[1,3,5,-1,7,9,11,13,15,-1,17,19,-1,-1,21,-1,-1,-1,23,-1,-1,-1,-1,-1,-1],"loss_changes":[5.9548943E9,2.9001984E8,1.04852096E9,0E0,1.941182E8,2.3141462E8,6.469427E7,3.533331E7,2.576806E6,0E0,1.9272736E7,2.3638656E7,0E0,0E0,3.542004E6,0E0,0E0,0E0,2.35456E6,0E0,0E0,0E0,0E0,0E0,0E0],"parents":[2147483647,0,0,1,1,2,2,4,4,5,5,6,6,7,7,8,8,10,10,11,11,14,14,18,18],"right_children":[2,4,6,-1,8,10,12,14,16,-1,18,20,-1,-1,22,-1,-1,-1,24,-1,-1,-1,-1,-1,-1],"split_conditions":[8.653749E2,7.3457184E2,1.1E1,-8.9121533E2,1.3E1,6E0,1.7E1,1.2E1,9.902455E2,-2.8254907E2,2.56552E3,2.3917292E3,2.0942856E3,-6.3025226E2,1.1225684E3,6.2024E1,2.2621953E2,3.3908154E2,4E0,6.028863E2,1.3628118E3,-2.726646E2,-3.0565674E1,2.0763994E2,7.667E2],"split_indices":[5,3,4,0,4,4,4,4,3,0,3,3,0,0,3,0,0,0,0,0,0,0,0,0,0],"split_type":[0,0,0,0,0,0,0,0,0,0,0,0,0,0,0,0,0,0,0,0,0,0,0,0,0],"sum_hessian":[8E1,4.7E1,3.3E1,2.6E1,2.1E1,1.6E1,1.7E1,1.6E1,5E0,3E0,1.3E1,1.2E1,5E0,1.1E1,5E0,3E0,2E0,5E0,8E0,3E0,9E0,4E0,1E0,1E0,7E0],"tree_param":{"num_deleted":"0","num_feature":"24","num_nodes":"25","size_leaf_vector":"1"}},{"base_weights":[1.2382488E3,-5.739321E3,8.936684E3,-7.069007E3,-1.9368281E3,3.326467E3,1.4673775E4,-7.8341205E2,-3.9856787E3,-5.377662E2,-1.9236578E2,-2.613579E2,4.52845E3,1.1457096E4,1.919762E3,-2.9037354E1,-4.4720978E2,-2.590082E2,1.4381727E3,3.3849902E2,5.791628E3,5.478326E2,1.2702894E3,3.7374317E1,1.8769518E2,7.7572723E2,-2.1156218E2,6.0152773E3,1.5539171E2,2.1382032E1,9.497705E1,5.0424805E0,-3.6776806E1,6.437944E2,2.601297E2],"categories":[],"categories_nodes":[],"categories_segments":[],"categories_sizes":[],"default_left":[0,0,0,0,0,0,0,0,0,0,0,0,0,0,0,0,0,0,0,0,0,0,0,0,0,0,0,0,0,0,0,0,0,0,0],"id":4,"left_children":[1,3,5,7,9,11,13,-1,15,-1,17,-1,19,21,-1,-1,-1,-1,23,25,27,-1,-1,-1,-1,29,31,33,-1,-1,-1,-1,-1,-1,-1],"loss_changes":[4.1874504E9,1.936096E8,1.1420823E9,3.9548544E7,7.099437E7,1.5463216E8,4.1982464E7,0E0,1.3081152E7,0E0,3.8911104E7,0E0,8.801466E7,2.7238016E7,0E0,0E0,0E0,0E0,2.100798E6,1.3666258E6,2.973632E6,0E0,0E0,0E0,0E0,9.0308125E4,1.4131634E5,5.68672E5,0E0,0E0,0E0,0E0,0E0,0E0,0E0],"parents":[2147483647,0,0,1,1,2,2,3,3,4,4,5,5,6,6,8,8,10,10,12,12,13,13,18,18,19,19,20,20,25,25,26,26,27,27],"right_children":[2,4,6,8,10,12,14,-1,16,-1,18,-1,20,22,-1,-1,-1,-1,24,26,28,-1,-1,-1,-1,30,32,34,-1,-1,-1,-1,-1,-1,-1],"split_conditions":[6.631509E2,4.3045396E-1,1.2E1,1E0,2.4453366E2,6E0,1.7E1,-7.8341205E2,4.522682E2,-5.377662E2,1.3E1,-2.613579E2,-4.3690282E-1,1.999307E4,1.919762E3,-2.9037354E1,-4.4720978E2,-2.590082E2,7.126098E-1,1.2999177E3,1.1E1,5.478326E2,1.2702894E3,3.7374317E1,1.8769518E2,7E0,3E0,3.191839E4,1.5539171E2,2.1382032E1,9.497705E1,5.0424805E0,-3.6776806E1,6.437944E2,2.601297E2],"split_indices":[5,16,4,21,5,4,4,0,5,0,4,0,16,6,0,0,0,0,16,5,2,0,0,0,0,2,2,12,0,0,0,0,0,0,0],"split_type":[0,0,0,0,0,0,0,0,0,0,0,0,0,0,0,0,0,0,0,0,0,0,0,0,0,0,0,0,0,0,0,0,0,0,0],"sum_hessian":[7.6E1,4E1,3.6E1,2.9E1,1.1E1,1.9E1,1.7E1,2.2E1,7E0,3E0,8E0,3E0,1.6E1,1.2E1,5E0,1E0,6E0,3E0,5E0,4E0,1.2E1,3E0,9E0,2E0,3E0,2E0,2E0,1.1E1,1E0,1E0,1E0,1E0,1E0,9E0,2E0],"tree_param":{"num_deleted":"0","num_feature":"24","num_nodes":"35","size_leaf_vector":"1"}},{"base_weights":[3.6226718E2,-5.7244136E3,8.467778E3,-7.766453E3,-2.958073E3,3.808711E3,1.345093E4,-8.131347E2,-3.635479E2,-4.0400676E3,1.5287227E3,1.3586312E3,6.652294E3,1.0256575E3,1.7597816E3,-4.6591333E2,-2.0254137E3,5.6161846E1,1.9862526E2,-1.5853867E3,2.5161245E3,7.0232025E2,1.8425146E2,-2.3201546E2,-2.7585499E1,-1.8809294E2,-3.493794E1,5.766572E2,3.3897488E2,1.6735481E1,9.0228226E1],"categories":[],"categories_nodes":[],"categories_segments":[],"categories_sizes":[],"default_left":[0,0,0,0,0,0,0,0,0,0,0,0,0,0,0,0,0,0,0,0,0,0,0,0,0,0,0,0,0,0,0],"id":5,"left_children":[1,3,5,7,9,11,13,-1,-1,15,17,19,21,-1,-1,-1,23,-1,-1,25,27,-1,-1,-1,-1,-1,-1,29,-1,-1,-1],"loss_changes":[4.1433324E9,2.4817715E8,7.845755E8,1.1137536E7,1.1297931E8,1.3030211E8,4.469939E7,0E0,0E0,1.301296E7,1.09688E6,4.4881204E7,3.11552E6,0E0,0E0,0E0,2.45397E6,0E0,0E0,8.04014E5,1.3294568E7,0E0,0E0,0E0,0E0,0E0,0E0,3.82115E5,0E0,0E0,0E0],"parents":[2147483647,0,0,1,1,2,2,3,3,4,4,5,5,6,6,9,9,10,10,11,11,12,12,16,16,19,19,20,20,27,27],"right_children":[2,4,6,8,10,12,14,-1,-1,16,18,20,22,-1,-1,-1,24,-1,-1,26,28,-1,-1,-1,-1,-1,-1,30,-1,-1,-1],"split_conditions":[8.653749E2,3.1189203E2,1.2E1,1.4E1,1.3E1,2.752193E3,1.7E1,-8.131347E2,-3.635479E2,1.2E1,9.902455E2,8E0,3.265214E3,1.0256575E3,1.7597816E3,-4.6591333E2,1.1225684E3,5.6161846E1,1.9862526E2,2.025E3,-4.3690282E-1,7.0232025E2,1.8425146E2,-2.3201546E2,-2.7585499E1,-1.8809294E2,-3.493794E1,7E0,3.3897488E2,1.6735481E1,9.0228226E1],"split_indices":[5,5,4,4,4,3,4,0,0,4,3,4,3,0,0,0,3,0,0,1,16,0,0,0,0,0,0,2,0,0,0],"split_type":[0,0,0,0,0,0,0,0,0,0,0,0,0,0,0,0,0,0,0,0,0,0,0,0,0,0,0,0,0,0,0],"sum_hessian":[8.2E1,4.7E1,3.5E1,2.6E1,2.1E1,1.9E1,1.6E1,2.3E1,3E0,1.7E1,4E0,1.1E1,8E0,1.1E1,5E0,1.2E1,5E0,2E0,2E0,3E0,8E0,7E0,1E0,4E0,1E0,2E0,1E0,3E0,5E0,2E0,1E0],"tree_param":{"num_deleted":"0","num_feature":"24","num_nodes":"31","size_leaf_vector":"1"}},{"base_weights":[2.865984E2,-5.03874E3,7.664114E3,-7.0583984E3,-2.7900488E3,2.3654165E3,1.1359538E4,-7.2158826E2,-1.8756177E2,-4.0474436E3,1.2375776E3,-2.499094E3,3.9192917E3,9.402393E3,1.5858949E3,-4.6830244E3,-1.5854447E3,1.6228271E3,3.1138575E1,-2.884035E2,-6.721358E1,-3.3191067E1,4.377603E3,3.352373E2,1.007529E3,-4.873374E3,-1.19941505E2,-2.6206202E1,-1.850775E2,1.8538359E2,4.649004E1,4.9310284E2,1.442601E2,-1.2420489E2,-5.0905807E2],"categories":[],"categories_nodes":[],"categories_segments":[],"categories_sizes":[],"default_left":[0,0,0,0,0,0,0,0,0,0,0,0,0,0,0,0,0,0,0,0,0,0,0,0,0,0,0,0,0,0,0,0,0,0,0],"id":6,"left_children":[1,3,5,7,9,11,13,-1,-1,15,17,19,21,23,-1,25,27,29,-1,-1,-1,-1,31,-1,-1,33,-1,-1,-1,-1,-1,-1,-1,-1,-1],"loss_changes":[2.9066248E9,1.75595E8,5.8013875E8,4.422272E6,1.16424E8,1.1561848E8,9.396224E6,0E0,0E0,1.9176896E7,1.635564E6,8.74618E5,2.2885088E7,2.7289344E7,0E0,2.775136E6,1.270649E6,2.08116E5,0E0,0E0,0E0,0E0,9.129536E6,0E0,0E0,3.14224E6,0E0,0E0,0E0,0E0,0E0,0E0,0E0,0E0,0E0],"parents":[2147483647,0,0,1,1,2,2,3,3,4,4,5,5,6,6,9,9,10,10,11,11,12,12,13,13,15,15,16,16,17,17,22,22,25,25],"right_children":[2,4,6,8,10,12,14,-1,-1,16,18,20,22,24,-1,26,28,30,-1,-1,-1,-1,32,-1,-1,34,-1,-1,-1,-1,-1,-1,-1,-1,-1],"split_conditions":[8.653749E2,3.1189203E2,1.1E1,1.7E1,1.3E1,6E0,1.8E1,-7.2158826E2,-1.8756177E2,1.2E1,1E0,2.147638E3,2.5189972E2,1.930682E4,1.5858949E3,1.147811E4,3E0,9.18507E3,3.1138575E1,-2.884035E2,-6.721358E1,-3.3191067E1,1.3E1,3.352373E2,1.007529E3,6.0973816E1,-1.19941505E2,-2.6206202E1,-1.850775E2,1.8538359E2,4.649004E1,4.9310284E2,1.442601E2,-1.2420489E2,-5.0905807E2],"split_indices":[5,5,4,4,4,4,4,0,0,4,19,5,13,6,0,13,0,10,0,0,0,0,11,0,0,13,0,0,0,0,0,0,0,0,0],"split_type":[0,0,0,0,0,0,0,0,0,0,0,0,0,0,0,0,0,0,0,0,0,0,0,0,0,0,0,0,0,0,0,0,0,0,0],"sum_hessian":[7.2E1,4.2E1,3E1,2.1E1,2.1E1,1.3E1,1.7E1,2E1,1E0,1.6E1,5E0,3E0,1E1,1.4E1,3E0,1.2E1,4E0,3E0,2E0,2E0,1E0,1E0,9E0,2E0,1.2E1,1.1E1,1E0,1E0,3E0,2E0,1E0,7E0,2E0,1E0,1E1],"tree_param":{"num_deleted":"0","num_feature":"24","num_nodes":"35","size_leaf_vector":"1"}},{"base_weights":[4.4885638E2,-4.624925E3,6.860684E3,-3.487125E3,-6.799564E2,2.8982856E3,1.1182119E4,-3.7342686E3,1.4693037E2,-7.119256E2,4.461867E3,8.618387E2,1.5436853E3,-4.399053E3,-1.301417E3,-2.0894795E2,-1.8518946E1,-1.13944435E2,5.0746636E3,-2.222125E3,-4.652504E2,-2.0507036E2,3.8119957E1,-4.1566772E1,7.850381E1,5.335209E3,1.2346035E2,-4.0988004E2,1.7039502E2,2.2307683E2,5.832473E2],"categories":[],"categories_nodes":[],"categories_segments":[],"categories_sizes":[],"default_left":[0,0,0,0,0,0,0,0,0,0,0,0,0,0,0,0,0,0,0,0,0,0,0,0,0,0,0,0,0,0,0],"id":7,"left_children":[1,3,5,7,-1,9,11,13,-1,15,17,-1,-1,19,21,-1,23,-1,25,27,-1,-1,-1,-1,-1,29,-1,-1,-1,-1,-1],"loss_changes":[2.2113884E9,7.031264E7,4.8128845E8,3.8560416E7,0E0,9.913914E7,1.9671168E7,3.6325376E7,0E0,5.692535E6,4.6971824E7,0E0,0E0,6.96448E5,9.607061E6,0E0,1.9219735E6,0E0,4.418752E6,3.6456016E7,0E0,0E0,0E0,0E0,0E0,2.4264E6,0E0,0E0,0E0,0E0,0E0],"parents":[2147483647,0,0,1,1,2,2,3,3,5,5,6,6,7,7,9,9,10,10,13,13,14,14,16,16,18,18,19,19,25,25],"right_children":[2,4,6,8,-1,10,12,14,-1,16,18,-1,-1,20,22,-1,24,-1,26,28,-1,-1,-1,-1,-1,30,-1,-1,-1,-1,-1],"split_conditions":[1.367022E4,1E0,1.2E1,3.9114746E4,-6.799564E2,-4.3690282E-1,1.7E1,8.19402E3,1.4693037E2,1.803514E4,1.623339E4,8.618387E2,1.5436853E3,2.025E3,1.3E1,-2.0894795E2,1E1,-1.13944435E2,9E0,6E0,-4.652504E2,-2.0507036E2,3.8119957E1,-4.1566772E1,7.850381E1,9E0,1.2346035E2,-4.0988004E2,1.7039502E2,2.2307683E2,5.832473E2],"split_indices":[6,23,4,12,0,16,4,6,0,6,6,0,0,1,4,0,0,0,0,4,0,0,0,0,0,4,0,0,0,0,0],"split_type":[0,0,0,0,0,0,0,0,0,0,0,0,0,0,0,0,0,0,0,0,0,0,0,0,0,0,0,0,0,0,0],"sum_hessian":[6.6E1,3.7E1,2.9E1,2.6E1,1.1E1,1.6E1,1.3E1,2.5E1,1E0,5E0,1.1E1,1E1,3E0,1.9E1,6E0,1E0,4E0,1E0,1E1,3E0,1.6E1,4E0,2E0,3E0,1E0,9E0,1E0,2E0,1E0,2E0,7E0],"tree_param":{"num_deleted":"0","num_feature":"24","num_nodes":"31","size_leaf_vector":"1"}},{"base_weights":[1.6282932E2,-4.453169E3,6.560413E3,-5.059018E3,1.2607047E2,4.203173E3,1.2812083E3,-5.710899E3,-2.6626626E3,-1.5492119E2,7.7096936E2,-5.4094868E1,5.6252676E3,-5.862582E2,-2.4421204E2,-2.913539E2,-1.1061049E2,2.6521322E1,1.01973564E2,-2.0290972E3,1.9344312E2,3.2649857E2,7.6227734E2,-1.862334E1,-2.5813074E2],"categories":[],"categories_nodes":[],"categories_segments":[],"categories_sizes":[],"default_left":[0,0,0,0,0,0,0,0,0,0,0,0,0,0,0,0,0,0,0,0,0,0,0,0,0],"id":8,"left_children":[1,3,5,7,9,11,-1,13,15,-1,17,19,21,-1,-1,-1,-1,-1,-1,23,-1,-1,-1,-1,-1],"loss_changes":[2.184995E9,1.1993395E8,4.0298586E8,4.415507E7,7.676721E6,1.4560598E8,0E0,6.1568E4,6.82352E5,0E0,3.586285E5,3.1416552E7,5.9976E7,0E0,0E0,0E0,0E0,0E0,0E0,3.589867E6,0E0,0E0,0E0,0E0,0E0],"parents":[2147483647,0,0,1,1,2,2,3,3,4,4,5,5,7,7,8,8,10,10,11,11,12,12,19,19],"right_children":[2,4,6,8,10,12,-1,14,16,-1,18,20,22,-1,-1,-1,-1,-1,-1,24,-1,-1,-1,-1,-1],"split_conditions":[8.653749E2,1.7E1,1.5E1,4.6519287E2,3.7704062E2,9E0,1.2812083E3,1.4E1,1.1127987E4,-1.5492119E2,8.8233E2,3.086366E4,2.6834211E3,-5.862582E2,-2.4421204E2,-2.913539E2,-1.1061049E2,2.6521322E1,1.01973564E2,3E0,1.9344312E2,3.2649857E2,7.6227734E2,-1.862334E1,-2.5813074E2],"split_indices":[5,4,4,5,3,4,0,4,15,0,3,6,3,0,0,0,0,0,0,0,0,0,0,0,0],"split_type":[0,0,0,0,0,0,0,0,0,0,0,0,0,0,0,0,0,0,0,0,0,0,0,0,0],"sum_hessian":[7.2E1,4.2E1,3E1,3.7E1,5E0,2.3E1,7E0,2.8E1,9E0,1E0,4E0,6E0,1.7E1,2.6E1,2E0,7E0,2E0,2E0,2E0,3E0,3E0,9E0,8E0,1E0,2E0],"tree_param":{"num_deleted":"0","num_feature":"24","num_nodes":"25","size_leaf_vector":"1"}},{"base_weights":[1.2022508E2,-3.844046E3,4.9621055E3,-5.5370938E3,-1.899312E3,2.2677852E3,8.1882695E3,-5.654984E2,-1.4717516E2,-2.6980562E3,1.3560295E3,-2.0174034E2,3.8030115E3,2.9874557E2,9.158652E3,-1.4995798E3,-3.1723293E3,4.300563E1,1.8299928E2,-1.4955096E3,1.7893486E2,1.5892067E3,4.987989E2,1.8867667E2,9.6074133E2,-1.6205937E2,-3.8674854E1,-9.119146E1,-3.2949203E2,-2.40922E2,-4.3634937E1,-4.5146973E1,2.087636E2],"categories":[],"categories_nodes":[],"categories_segments":[],"categories_sizes":[],"default_left":[0,0,0,0,0,0,0,0,0,0,0,0,0,0,0,0,0,0,0,0,0,0,0,0,0,0,0,0,0,0,0,0,0],"id":9,"left_children":[1,3,5,7,9,11,13,-1,-1,15,17,19,21,-1,23,25,27,-1,-1,29,-1,31,-1,-1,-1,-1,-1,-1,-1,-1,-1,-1,-1],"loss_changes":[1.535442E9,1.343545E8,2.9435424E8,2.700352E6,6.086273E7,8.038412E7,5.338752E7,0E0,0E0,5.474136E6,1.407386E6,2.5860076E7,2.6176064E7,0E0,2.429632E7,3.15913E5,3.20584E5,0E0,0E0,4.755335E6,0E0,7.0453E6,0E0,0E0,0E0,0E0,0E0,0E0,0E0,0E0,0E0,0E0,0E0],"parents":[2147483647,0,0,1,1,2,2,3,3,4,4,5,5,6,6,9,9,10,10,11,11,12,12,14,14,15,15,16,16,19,19,21,21],"right_children":[2,4,6,8,10,12,14,-1,-1,16,18,20,22,-1,24,26,28,-1,-1,30,-1,32,-1,-1,-1,-1,-1,-1,-1,-1,-1,-1,-1],"split_conditions":[8.653749E2,3.1189203E2,1.2E1,1.7E1,1.3E1,9E0,1.999307E4,-5.654984E2,-1.4717516E2,9E0,9.902455E2,3.227415E4,2.56552E3,2.9874557E2,2.1511138E3,1.623339E4,8E0,4.300563E1,1.8299928E2,1.1269025E4,1.7893486E2,2.0763164E3,4.987989E2,1.8867667E2,9.6074133E2,-1.6205937E2,-3.8674854E1,-9.119146E1,-3.2949203E2,-2.40922E2,-4.3634937E1,-4.5146973E1,2.087636E2],"split_indices":[5,5,4,4,4,4,6,0,0,11,3,6,3,0,3,6,9,0,0,12,0,3,0,0,0,0,0,0,0,0,0,0,0],"split_type":[0,0,0,0,0,0,0,0,0,0,0,0,0,0,0,0,0,0,0,0,0,0,0,0,0,0,0,0,0,0,0,0,0],"sum_hessian":[7.8E1,4.3E1,3.5E1,2.2E1,2.1E1,2E1,1.5E1,2.1E1,1E0,1.7E1,4E0,8E0,1.2E1,3E0,1.2E1,6E0,1.1E1,2E0,2E0,5E0,3E0,5E0,7E0,1E0,1.1E1,5E0,1E0,1E0,1E1,2E0,3E0,1E0,4E0],"tree_param":{"num_deleted":"0","num_feature":"24","num_nodes":"33","size_leaf_vector":"1"}},{"base_weights":[2.2677138E2,-3.6274377E3,5.466479E3,-4.8539033E3,-2.0299589E3,2.0088066E3,8.454459E3,-5.1063385E2,-2.1258174E2,-2.6968835E3,9.103467E2,-8.4972723E2,3.5088843E3,6.253669E3,1.218056E4,-3.306909E3,-1.8171699E3,1.5974678E2,3.3919946E2,-2.2486055E2,1.5954512E2,4.115392E3,3.175638E2,2.763396E2,6.954344E2,1.3273656E3,3.3575412E2,-3.4640906E2,-9.461372E1,-3.6741066E1,-1.9374309E3,7.6320314E0,4.0138577E1,1.2061094E2,-4.036233E1,1.9481602E2,4.765897E2,-4.288965E1,9.052422E1,-2.0695222E2,-4.403501E1],"categories":[],"categories_nodes":[],"categories_segments":[],"categories_sizes":[],"default_left":[0,0,0,0,0,0,0,0,0,0,0,0,0,0,0,0,0,0,0,0,0,0,0,0,0,0,0,0,0,0,0,0,0,0,0,0,0,0,0,0,0],"id":10,"left_children":[1,3,5,7,9,11,13,-1,-1,15,17,19,21,23,25,27,29,-1,31,-1,33,35,37,-1,-1,-1,-1,-1,-1,-1,39,-1,-1,-1,-1,-1,-1,-1,-1,-1,-1],"loss_changes":[1.7162033E9,8.615021E7,3.54949E8,7.738816E6,4.755723E7,8.016599E7,7.963379E7,0E0,0E0,4.187088E6,1.4203762E6,1.0241698E7,2.191984E7,1.5020032E7,1.3299584E7,4.33192E5,1.031658E6,0E0,3.475603E4,0E0,3.4337735E6,4.813232E6,1.704291E6,0E0,0E0,0E0,0E0,0E0,0E0,0E0,8.68448E5,0E0,0E0,0E0,0E0,0E0,0E0,0E0,0E0,0E0,0E0],"parents":[2147483647,0,0,1,1,2,2,3,3,4,4,5,5,6,6,9,9,10,10,11,11,12,12,13,13,14,14,15,15,16,16,18,18,20,20,21,21,22,22,30,30],"right_children":[2,4,6,8,10,12,14,-1,-1,16,18,20,22,24,26,28,30,-1,32,-1,34,36,38,-1,-1,-1,-1,-1,-1,-1,40,-1,-1,-1,-1,-1,-1,-1,-1,-1,-1],"split_conditions":[8.653749E2,3.1189203E2,1.2E1,1.4E1,1.3E1,9E0,1.7E1,-5.1063385E2,-2.1258174E2,1.1E1,2E0,1.1843953E4,4.840698E4,1.999307E4,1.1E1,1.147811E4,5E0,1.5974678E2,4E0,-2.2486055E2,1.2303499E3,7E0,7E0,2.763396E2,6.954344E2,1.3273656E3,3.3575412E2,-3.4640906E2,-9.461372E1,-3.6741066E1,1.1127987E4,7.6320314E0,4.0138577E1,1.2061094E2,-4.036233E1,1.9481602E2,4.765897E2,-4.288965E1,9.052422E1,-2.0695222E2,-4.403501E1],"split_indices":[5,5,4,4,4,4,4,0,0,4,0,14,10,6,0,13,9,0,0,0,5,9,0,0,0,0,0,0,0,0,15,0,0,0,0,0,0,0,0,0,0],"split_type":[0,0,0,0,0,0,0,0,0,0,0,0,0,0,0,0,0,0,0,0,0,0,0,0,0,0,0,0,0,0,0,0,0,0,0,0,0,0,0,0,0],"sum_hessian":[8.3E1,4.8E1,3.5E1,2.6E1,2.2E1,1.7E1,1.8E1,2.3E1,3E0,1.8E1,4E0,6E0,1.1E1,1.3E1,5E0,9E0,9E0,1E0,3E0,2E0,4E0,9E0,2E0,3E0,1E1,4E0,1E0,8E0,1E0,1E0,8E0,1E0,2E0,1E0,3E0,3E0,6E0,1E0,1E0,7E0,1E0],"tree_param":{"num_deleted":"0","num_feature":"24","num_nodes":"41","size_leaf_vector":"1"}},{"base_weights":[4.820814E2,-3.752338E3,5.1866606E3,-5.6933514E2,-3.2994434E3,1.9740889E3,8.1110845E3,-4.192961E2,-2.5466487E3,-1.7052864E3,2.8236497E3,6.043183E3,1.1239689E4,-2.6390768E2,-3.4904053E1,-2.0986986E2,-2.6252491E1,1.5289172E3,3.765426E2,8.300469E1,6.408441E2,1.2211761E3,3.189664E2,-1.3492286E1,1.7858834E3,4.9929104E1,1.9171002E2],"categories":[],"categories_nodes":[],"categories_segments":[],"categories_sizes":[],"default_left":[0,0,0,0,0,0,0,0,0,0,0,0,0,0,0,0,0,0,0,0,0,0,0,0,0,0,0],"id":11,"left_children":[1,3,5,-1,7,9,11,-1,13,15,17,19,21,-1,-1,-1,-1,23,-1,-1,-1,-1,-1,-1,25,-1,-1],"loss_changes":[1.4737069E9,1.5499008E7,3.128103E8,0E0,1.2191616E7,6.108049E7,4.853005E7,0E0,3.344416E6,1.719439E6,1.25332E7,1.9434496E7,7.999872E6,0E0,0E0,0E0,0E0,3.661358E6,0E0,0E0,0E0,0E0,0E0,0E0,2.2457E5,0E0,0E0],"parents":[2147483647,0,0,1,1,2,2,4,4,5,5,6,6,8,8,9,9,10,10,11,11,12,12,17,17,24,24],"right_children":[2,4,6,-1,8,10,12,-1,14,16,18,20,22,-1,-1,-1,-1,24,-1,-1,-1,-1,-1,-1,26,-1,-1],"split_conditions":[8.653749E2,7E0,1.1E1,-5.6933514E2,4.5367728E2,6E0,1.7E1,-4.192961E2,1.3318992E3,2.147638E3,2.6834211E3,2.3190557E3,1.1E1,-2.6390768E2,-3.4904053E1,-2.0986986E2,-2.6252491E1,2.218432E3,3.765426E2,8.300469E1,6.408441E2,1.2211761E3,3.189664E2,-1.3492286E1,9E0,4.9929104E1,1.9171002E2],"split_indices":[5,4,4,0,3,4,4,0,3,5,3,3,0,0,0,0,0,3,0,0,0,0,0,0,4,0,0],"split_type":[0,0,0,0,0,0,0,0,0,0,0,0,0,0,0,0,0,0,0,0,0,0,0,0,0,0,0],"sum_hessian":[7.2E1,3.8E1,3.4E1,5E0,3.3E1,1.7E1,1.7E1,1.3E1,2E1,3E0,1.4E1,1.2E1,5E0,1.9E1,1E0,2E0,1E0,7E0,7E0,1E0,1.1E1,4E0,1E0,1E0,6E0,1E0,5E0],"tree_param":{"num_deleted":"0","num_feature":"24","num_nodes":"27","size_leaf_vector":"1"}},{"base_weights":[2.6584158E2,-2.916938E3,4.2360083E3,-3.5581372E3,-3.1301416E2,2.9163044E3,9.468676E3,-4.7155362E2,-2.6279211E3,-1.8437688E2,7.596579E2,-8.680877E2,3.815852E3,4.2477304E2,1.1017216E3,-1.0223513E2,-2.8511187E3,1.1804473E3,-5.4613934E1,-1.4247181E3,9.575323E1,1.853918E3,4.8045347E3,-3.0073282E2,-1.1196989E2,5.5056515E1,1.5350468E2,2.04458E1,-2.8637892E1,-1.9587852E2,-4.1574512E1,-4.4895313E1,2.197896E2,5.3755347E3,2.7016275E2,1.4687471E2,5.6464276E2],"categories":[],"categories_nodes":[],"categories_segments":[],"categories_sizes":[],"default_left":[0,0,0,0,0,0,0,0,0,0,0,0,0,0,0,0,0,0,0,0,0,0,0,0,0,0,0,0,0,0,0,0,0,0,0,0,0],"id":12,"left_children":[1,3,5,7,9,11,13,-1,15,-1,17,19,21,-1,-1,-1,23,25,27,29,-1,31,33,-1,-1,-1,-1,-1,-1,-1,-1,-1,-1,35,-1,-1,-1],"loss_changes":[9.0952403E8,6.5671616E7,1.933648E8,2.2060128E7,1.6178611E7,9.522702E7,1.710912E6,0E0,4.252352E6,0E0,2.1202902E6,7.4613885E6,3.376685E7,0E0,0E0,0E0,1.230592E6,4.8281E4,2.3868386E5,1.879939E6,0E0,8.115986E6,2.287936E6,0E0,0E0,0E0,0E0,0E0,0E0,0E0,0E0,0E0,0E0,2.290048E6,0E0,0E0,0E0],"parents":[2147483647,0,0,1,1,2,2,3,3,4,4,5,5,6,6,8,8,10,10,11,11,12,12,16,16,17,17,18,18,19,19,21,21,22,22,33,33],"right_children":[2,4,6,8,10,12,14,-1,16,-1,18,20,22,-1,-1,-1,24,26,28,30,-1,32,34,-1,-1,-1,-1,-1,-1,-1,-1,-1,-1,36,-1,-1,-1],"split_conditions":[8.653749E2,4.3045396E-1,1.6E1,4.11599E3,7.80805E2,8E0,1.2677686E3,-4.7155362E2,8E0,-1.8437688E2,7.0111333E3,2.8166108E3,2.56552E3,4.2477304E2,1.1017216E3,-1.0223513E2,1.999307E4,9.902455E2,8.7267E2,1.1269025E4,9.575323E1,2.0763164E3,3.5858125E3,-3.0073282E2,-1.1196989E2,5.5056515E1,1.5350468E2,2.04458E1,-2.8637892E1,-1.9587852E2,-4.1574512E1,-4.4895313E1,2.197896E2,9E0,2.7016275E2,1.4687471E2,5.6464276E2],"split_indices":[5,16,4,6,3,4,5,0,9,0,13,3,3,0,0,0,8,3,3,12,0,3,15,0,0,0,0,0,0,0,0,0,0,4,0,0,0],"split_type":[0,0,0,0,0,0,0,0,0,0,0,0,0,0,0,0,0,0,0,0,0,0,0,0,0,0,0,0,0,0,0,0,0,0,0,0,0],"sum_hessian":[7E1,3.9E1,3.1E1,3.1E1,8E0,2.6E1,5E0,1.2E1,1.9E1,3E0,5E0,5E0,2.1E1,2E0,3E0,3E0,1.6E1,3E0,2E0,4E0,1E0,8E0,1.3E1,1.4E1,2E0,2E0,1E0,1E0,1E0,2E0,2E0,1E0,7E0,9E0,4E0,1E0,8E0],"tree_param":{"num_deleted":"0","num_feature":"24","num_nodes":"37","size_leaf_vector":"1"}},{"base_weights":[-2.6150219E1,-2.721075E3,4.2494595E3,-3.9786565E3,-1.8466769E3,1.4563823E3,7.575064E3,-4.102429E2,-9.372646E1,-2.4391826E3,3.639389E2,-5.8578723E2,2.6235464E3,5.1146294E3,1.0488833E3,-3.2411887E2,-1.692094E2,-4.776499E2,1.114543E3,8.493913E1,-1.3297369E3,3.1559512E3,1.518164E2,1.548668E2,5.9122375E2,-7.663564E1,1.9423487E1,1.458295E2,5.1386066E1,-1.8281993E2,-3.88029E1,1.8236278E2,3.8570847E2,-4.2650585E1,6.542305E1],"categories":[],"categories_nodes":[],"categories_segments":[],"categories_sizes":[],"default_left":[0,0,0,0,0,0,0,0,0,0,0,0,0,0,0,0,0,0,0,0,0,0,0,0,0,0,0,0,0,0,0,0,0,0,0],"id":13,"left_children":[1,3,5,7,9,11,13,-1,-1,15,17,19,21,23,-1,-1,-1,25,27,-1,29,31,33,-1,-1,-1,-1,-1,-1,-1,-1,-1,-1,-1,-1],"loss_changes":[8.642242E8,4.323552E7,2.5833923E8,2.930848E6,3.887201E7,4.2057136E7,3.955232E7,0E0,0E0,8.296512E6,4.954261E6,8.603372E6,1.399644E7,1.6442048E7,0E0,0E0,0E0,9.247633E5,7.65825E4,0E0,1.637634E6,1.373336E6,1.1507049E6,0E0,0E0,0E0,0E0,0E0,0E0,0E0,0E0,0E0,0E0,0E0,0E0],"parents":[2147483647,0,0,1,1,2,2,3,3,4,4,5,5,6,6,9,9,10,10,11,11,12,12,13,13,17,17,18,18,20,20,21,21,22,22],"right_children":[2,4,6,8,10,12,14,-1,-1,16,18,20,22,24,-1,-1,-1,26,28,-1,30,32,34,-1,-1,-1,-1,-1,-1,-1,-1,-1,-1,-1,-1],"split_conditions":[8.653749E2,4.20311E3,1.2E1,1E0,4.0073365E-1,9E0,1.7E1,-4.102429E2,-9.372646E1,1E1,6.712392E-1,1.2303499E3,1.6E1,1.930682E4,1.0488833E3,-3.2411887E2,-1.692094E2,1.6E1,2E0,8.493913E1,1.1269025E4,1.4E1,7E0,1.548668E2,5.9122375E2,-7.663564E1,1.9423487E1,1.458295E2,5.1386066E1,-1.8281993E2,-3.88029E1,1.8236278E2,3.8570847E2,-4.2650585E1,6.542305E1],"split_indices":[5,6,4,19,16,4,4,0,0,4,16,5,11,6,0,0,0,4,0,0,12,7,0,0,0,0,0,0,0,0,0,0,0,0,0],"split_type":[0,0,0,0,0,0,0,0,0,0,0,0,0,0,0,0,0,0,0,0,0,0,0,0,0,0,0,0,0,0,0,0,0,0,0],"sum_hessian":[7.3E1,4.5E1,2.8E1,1.7E1,2.8E1,1.6E1,1.2E1,1.6E1,1E0,2.2E1,6E0,6E0,1E1,8E0,4E0,9E0,1.3E1,3E0,3E0,2E0,4E0,8E0,2E0,2E0,6E0,2E0,1E0,1E0,2E0,2E0,2E0,4E0,4E0,1E0,1E0],"tree_param":{"num_deleted":"0","num_feature":"24","num_nodes":"35","size_leaf_vector":"1"}},{"base_weights":[3.4417465E2,-2.2594985E3,3.933247E3,-3.3720176E3,-8.419987E2,6.501501E1,5.542302E3,-4.081429E2,-2.4724204E3,-1.3813114E3,1.2679268E3,-3.1382617E2,1.12555E3,4.2199946E3,8.80589E3,-2.628127E2,-1.025454E2,-1.475994E3,-4.159004E1,4.796032E1,1.6336081E2,1.8658942E2,1.600959E2,1.8325476E2,4.7344775E3,9.6497266E2,2.2933536E2,-1.9840472E2,-1.0646929E3,-3.621605E1,6.28987E1,5.0269678E2,1.8888594E2,-1.13198875E2,-1.958667E1],"categories":[],"categories_nodes":[],"categories_segments":[],"categories_sizes":[],"default_left":[0,0,0,0,0,0,0,0,0,0,0,0,0,0,0,0,0,0,0,0,0,0,0,0,0,0,0,0,0,0,0,0,0,0,0],"id":14,"left_children":[1,3,5,7,9,11,13,-1,15,17,19,-1,21,23,25,-1,-1,27,-1,-1,-1,-1,29,-1,31,-1,-1,-1,33,-1,-1,-1,-1,-1,-1],"loss_changes":[7.564689E8,7.127957E7,2.1126237E8,6.50176E6,2.6785412E7,4.090133E7,6.641037E7,0E0,4.59208E5,1.031472E6,6.57893E5,0E0,6.134193E6,1.46616E7,1.0842848E7,0E0,0E0,1.231004E6,0E0,0E0,0E0,0E0,1.452201E6,0E0,2.989472E6,0E0,0E0,0E0,4.21435E5,0E0,0E0,0E0,0E0,0E0,0E0],"parents":[2147483647,0,0,1,1,2,2,3,3,4,4,5,5,6,6,8,8,9,9,10,10,12,12,13,13,14,14,17,17,22,22,24,24,28,28],"right_children":[2,4,6,8,10,12,14,-1,16,18,20,-1,22,24,26,-1,-1,28,-1,-1,-1,-1,30,-1,32,-1,-1,-1,34,-1,-1,-1,-1,-1,-1],"split_conditions":[2.235855E3,7.3457184E2,1E1,3.2740845E2,1.3E1,5E0,1.7E1,-4.081429E2,1.6E1,2.198721E4,9.902455E2,-3.1382617E2,5E0,1.999307E4,1.1E1,-2.628127E2,-1.025454E2,-3.3533388E-1,-4.159004E1,4.796032E1,1.6336081E2,1.8658942E2,8E0,1.8325476E2,4.918881E4,9.6497266E2,2.2933536E2,-1.9840472E2,1.623339E4,-3.621605E1,6.28987E1,5.0269678E2,1.8888594E2,-1.13198875E2,-1.958667E1],"split_indices":[3,3,4,3,4,4,4,0,7,6,3,0,0,6,0,0,0,16,0,0,0,0,4,0,8,0,0,0,6,0,0,0,0,0,0],"split_type":[0,0,0,0,0,0,0,0,0,0,0,0,0,0,0,0,0,0,0,0,0,0,0,0,0,0,0,0,0,0,0,0,0,0,0],"sum_hessian":[7.9E1,4.6E1,3.3E1,2.5E1,2.1E1,1E1,2.3E1,1.2E1,1.3E1,1.7E1,4E0,2E0,8E0,1.8E1,5E0,1.1E1,2E0,1.5E1,2E0,2E0,2E0,4E0,4E0,4E0,1.4E1,4E0,1E0,5E0,1E1,2E0,2E0,1.2E1,2E0,9E0,1E0],"tree_param":{"num_deleted":"0","num_feature":"24","num_nodes":"35","size_leaf_vector":"1"}},{"base_weights":[2.8794522E2,-2.1994226E3,3.2509695E3,-3.994735E2,-1.4574486E3,1.1527827E3,5.067622E3,-2.23028E3,1.6460611E1,1.1221078E2,2.771937E3,3.7178113E3,6.8504673E3,-2.6228253E2,-1.26454155E2,-8.6293555E2,1.0396793E3,-1.141196E3,8.815637E2,7.738906E1,2.9759628E2,9.5040825E1,4.1345747E3,1.475291E2,7.500448E2,-2.9832422E1,-1.0291152E2,4.1599365E1,1.5247006E2,-1.5639772E2,-3.380163E1,-1.97875E1,1.0640371E3,1.57714E2,4.527656E2,2.905127E1,1.1445391E2],"categories":[],"categories_nodes":[],"categories_segments":[],"categories_sizes":[],"default_left":[0,0,0,0,0,0,0,0,0,0,0,0,0,0,0,0,0,0,0,0,0,0,0,0,0,0,0,0,0,0,0,0,0,0,0,0,0],"id":15,"left_children":[1,3,5,-1,7,9,11,13,15,17,19,21,23,-1,-1,25,27,29,31,-1,-1,-1,33,-1,-1,-1,-1,-1,-1,-1,-1,-1,35,-1,-1,-1,-1],"loss_changes":[5.820205E8,5.145712E7,1.313785E8,0E0,3.6487384E7,3.0016194E7,2.0254848E7,4.644344E6,1.1694953E7,1.2577785E7,5.50504E5,1.1064048E7,1.3390976E7,0E0,0E0,3.497785E5,1.180739E6,1.169196E6,1.786297E6,0E0,0E0,0E0,3.917328E6,0E0,0E0,0E0,0E0,0E0,0E0,0E0,0E0,0E0,1.033885E5,0E0,0E0,0E0,0E0],"parents":[2147483647,0,0,1,1,2,2,4,4,5,5,6,6,7,7,8,8,9,9,10,10,11,11,12,12,15,15,16,16,17,17,18,18,22,22,32,32],"right_children":[2,4,6,-1,8,10,12,14,16,18,20,22,24,-1,-1,26,28,30,32,-1,-1,-1,34,-1,-1,-1,-1,-1,-1,-1,-1,-1,36,-1,-1,-1,-1],"split_conditions":[8.653749E2,1E1,1.1E1,-3.994735E2,7.80805E2,2.8166108E3,6.124486E-1,4.9145306E2,1.3E1,8E0,4E0,2.3190557E3,1.490863E4,-2.6228253E2,-1.26454155E2,9.18507E3,9.902455E2,1.1843953E4,2.218432E3,7.738906E1,2.9759628E2,9.5040825E1,2.344522E4,1.475291E2,7.500448E2,-2.9832422E1,-1.0291152E2,4.1599365E1,1.5247006E2,-1.5639772E2,-3.380163E1,-1.97875E1,9E0,1.57714E2,4.527656E2,2.905127E1,1.1445391E2],"split_indices":[5,4,4,0,3,3,16,3,4,4,0,3,6,0,0,6,3,14,3,0,0,0,6,0,0,0,0,0,0,0,0,0,4,0,0,0,0],"split_type":[0,0,0,0,0,0,0,0,0,0,0,0,0,0,0,0,0,0,0,0,0,0,0,0,0,0,0,0,0,0,0,0,0,0,0,0,0],"sum_hessian":[7.7E1,4.2E1,3.5E1,1.1E1,3.1E1,1.7E1,1.8E1,2E1,1.1E1,1.1E1,6E0,1.2E1,6E0,1.3E1,7E0,6E0,5E0,4E0,7E0,1E0,5E0,2E0,1E1,1E0,5E0,2E0,4E0,3E0,2E0,2E0,2E0,1E0,6E0,2E0,8E0,1E0,5E0],"tree_param":{"num_deleted":"0","num_feature":"24","num_nodes":"37","size_leaf_vector":"1"}},{"base_weights":[1.27531654E2,-2.1057988E3,3.7122583E3,-2.4186611E3,3.3091617E2,1.3093834E3,6.0216055E3,-4.3189658E2,-2.02379E3,6.7068164E2,-6.839556E1,-1.500953E2,1.853748E3,2.2283707E2,6.853545E3,-2.6140472E2,-1.71893E3,1.3974317E1,7.6848045E1,-5.915835E2,8.079287E1,2.190667E2,7.1647316E1,1.4015263E2,7.2585944E2,-6.210752E1,-1.7845398E3,-8.209844E1,-2.4145508E1,-4.484922E1,-1.8231293E2],"categories":[],"categories_nodes":[],"categories_segments":[],"categories_sizes":[],"default_left":[0,0,0,0,0,0,0,0,0,0,0,0,0,0,0,0,0,0,0,0,0,0,0,0,0,0,0,0,0,0,0],"id":16,"left_children":[1,3,5,7,9,11,13,-1,15,17,-1,19,21,-1,23,-1,25,-1,-1,27,-1,-1,-1,-1,-1,-1,29,-1,-1,-1,-1],"loss_changes":[5.8424064E8,3.51064E7,1.474894E8,2.1274336E7,2.527627E6,1.2195568E7,2.8908128E7,0E0,1.804752E6,1.5223575E5,0E0,2.5927388E6,2.645312E6,0E0,1.4118592E7,0E0,7.6444E5,0E0,0E0,1.2304825E5,0E0,0E0,0E0,0E0,0E0,0E0,4.1972E5,0E0,0E0,0E0,0E0],"parents":[2147483647,0,0,1,1,2,2,3,3,4,4,5,5,6,6,8,8,9,9,11,11,12,12,14,14,16,16,19,19,26,26],"right_children":[2,4,6,8,10,12,14,-1,16,18,-1,20,22,-1,24,-1,26,-1,-1,28,-1,-1,-1,-1,-1,-1,30,-1,-1,-1,-1],"split_conditions":[8.653749E2,1.7E1,1.2E1,7E0,2.1E1,3E0,-8.9810625E-2,-4.3189658E2,1.4050148E2,4E0,-6.839556E1,9E0,1.3E1,2.2283707E2,1.490863E4,-2.6140472E2,1.6054303E2,1.3974317E1,7.6848045E1,1.302615E3,8.079287E1,2.190667E2,7.1647316E1,1.4015263E2,7.2585944E2,-6.210752E1,2.60523E3,-8.209844E1,-2.4145508E1,-4.484922E1,-1.8231293E2],"split_indices":[5,4,4,4,4,2,16,0,5,0,0,4,11,0,6,0,5,0,0,5,0,0,0,0,0,0,14,0,0,0,0],"split_type":[0,0,0,0,0,0,0,0,0,0,0,0,0,0,0,0,0,0,0,0,0,0,0,0,0,0,0,0,0,0,0],"sum_hessian":[7.1E1,4.4E1,2.7E1,3.9E1,5E0,1.4E1,1.3E1,5E0,3.4E1,4E0,1E0,4E0,1E1,3E0,1E1,9E0,2.5E1,1E0,3E0,3E0,1E0,7E0,3E0,1E0,9E0,2E0,2.3E1,1E0,2E0,1E0,2.2E1],"tree_param":{"num_deleted":"0","num_feature":"24","num_nodes":"31","size_leaf_vector":"1"}},{"base_weights":[-6.145772E1,-1.7571083E3,2.5718435E3,-3.1815088E3,-1.2592365E3,1.1140466E3,5.2302524E3,-7.799351E1,-3.3436726E3,-1.4538284E3,1.3010196E2,-6.495445E2,1.9162675E3,3.071869E3,6.7742627E3,-3.6693085E2,-1.3607535E2,-1.0279612E3,-2.4752562E2,-1.4816624E3,3.4495947E2,2.7721824E3,9.278086E2,3.3170273E2,9.230381E1,7.547386E2,1.8408849E2,7.675323E1,-1.1347539E3,-4.085552E1,-1.7031798E2,-1.759082E1,5.772181E1,-4.346143E0,3.2487E3,1.1939896E3,-4.677295E1,-1.3990723E2,-2.9297056E1,3.6631226E2,5.8829296E1,9.913965E0,1.3599414E2],"categories":[],"categories_nodes":[],"categories_segments":[],"categories_sizes":[],"default_left":[0,0,0,0,0,0,0,0,0,0,0,0,0,0,0,0,0,0,0,0,0,0,0,0,0,0,0,0,0,0,0,0,0,0,0,0,0,0,0,0,0,0,0],"id":17,"left_children":[1,3,5,7,9,11,13,-1,15,17,-1,19,21,23,25,-1,-1,27,-1,29,31,33,35,-1,-1,-1,-1,-1,37,-1,-1,-1,-1,-1,39,41,-1,-1,-1,-1,-1,-1,-1],"loss_changes":[3.3047562E8,2.790632E7,1.0656042E8,1.676088E6,1.9328636E7,2.9540496E7,1.2516032E7,0E0,1.464072E6,1.181028E7,0E0,6.3039245E6,9.272456E6,9.9084E4,5.176688E6,0E0,0E0,5.664604E6,0E0,2.55005E5,5.854415E5,9.533116E6,3.5301915E6,0E0,0E0,0E0,0E0,0E0,4.930086E6,0E0,0E0,0E0,0E0,0E0,4.460216E6,1.137021E6,0E0,0E0,0E0,0E0,0E0,0E0,0E0],"parents":[2147483647,0,0,1,1,2,2,3,3,4,4,5,5,6,6,8,8,9,9,11,11,12,12,13,13,14,14,17,17,19,19,20,20,21,21,22,22,28,28,34,34,35,35],"right_children":[2,4,6,8,10,12,14,-1,16,18,-1,20,22,24,26,-1,-1,28,-1,30,32,34,36,-1,-1,-1,-1,-1,38,-1,-1,-1,-1,-1,40,42,-1,-1,-1,-1,-1,-1,-1],"split_conditions":[1.623339E4,9E0,1.3E1,6.0973816E1,3.389157E4,9E0,1.7E1,-7.799351E1,6.07774E3,1E0,1.3010196E2,1.314318E4,2.74867E4,1E1,1.1E1,-3.6693085E2,-1.3607535E2,2.025E3,-2.4752562E2,1E1,3E0,2.020623E4,5.0985E4,3.3170273E2,9.230381E1,7.547386E2,1.8408849E2,7.675323E1,8.68782E3,-4.085552E1,-1.7031798E2,-1.759082E1,5.772181E1,-4.346143E0,3.839702E4,1.930682E4,-4.677295E1,-1.3990723E2,-2.9297056E1,3.6631226E2,5.8829296E1,9.913965E0,1.3599414E2],"split_indices":[6,4,4,13,14,4,4,0,8,23,0,12,8,0,0,0,0,1,0,0,0,6,10,0,0,0,0,0,6,0,0,0,0,0,10,6,0,0,0,0,0,0,0],"split_type":[0,0,0,0,0,0,0,0,0,0,0,0,0,0,0,0,0,0,0,0,0,0,0,0,0,0,0,0,0,0,0,0,0,0,0,0,0,0,0,0,0,0,0],"sum_hessian":[7.2E1,4.4E1,2.8E1,1E1,3.4E1,1.9E1,9E0,1E0,9E0,3.2E1,2E0,6E0,1.3E1,5E0,4E0,7E0,2E0,2.4E1,8E0,3E0,3E0,6E0,7E0,4E0,1E0,3E0,1E0,1E0,2.3E1,1E0,2E0,1E0,2E0,1E0,5E0,6E0,1E0,1.7E1,6E0,4E0,1E0,1E0,5E0],"tree_param":{"num_deleted":"0","num_feature":"24","num_nodes":"43","size_leaf_vector":"1"}},{"base_weights":[2.6752332E2,-1.6714011E3,2.8232776E3,-3.6860455E2,-1.2891993E3,1.8676055E3,6.4939766E3,-1.6135686E3,2.8512625E2,-1.01942505E3,2.2884976E3,7.093236E2,1.7488399E2,-2.0631116E3,-1.0912739E3,-4.555873E2,1.4246068E2,-1.3734581E2,2.1336915E0,1.7012412E3,4.0623724E2,-2.1276477E2,-5.798042E1,-1.196303E3,2.4208008E1,-6.941719E1,-6.51403E0,1.2842809E3,2.6118738E2,-1.5626918E2,-8.568393E1,9.418262E0,1.3625606E2],"categories":[],"categories_nodes":[],"categories_segments":[],"categories_sizes":[],"default_left":[0,0,0,0,0,0,0,0,0,0,0,0,0,0,0,0,0,0,0,0,0,0,0,0,0,0,0,0,0,0,0,0,0],"id":18,"left_children":[1,3,5,-1,7,9,11,13,15,17,19,-1,-1,21,23,25,-1,-1,-1,27,-1,-1,-1,29,-1,-1,-1,31,-1,-1,-1,-1,-1],"loss_changes":[3.5655325E8,2.6817984E7,9.661934E7,0E0,1.884394E7,3.392628E7,4.656448E6,4.7924E6,6.5572335E6,1.5031612E6,1.7048464E7,0E0,0E0,2.02276E5,2.530254E6,4.2055462E5,0E0,0E0,0E0,3.859876E6,0E0,0E0,0E0,5.26662E5,0E0,0E0,0E0,1.269078E6,0E0,0E0,0E0,0E0,0E0],"parents":[2147483647,0,0,1,1,2,2,4,4,5,5,6,6,7,7,8,8,9,9,10,10,13,13,14,14,15,15,19,19,23,23,27,27],"right_children":[2,4,6,-1,8,10,12,14,16,18,20,-1,-1,22,24,26,-1,-1,-1,28,-1,-1,-1,30,-1,-1,-1,32,-1,-1,-1,-1,-1],"split_conditions":[8.653749E2,7E0,1.7E1,-3.6860455E2,1.0507775E3,6E0,2.752193E4,4.9145306E2,1.3E1,2.147638E3,3.918257E4,7.093236E2,1.7488399E2,1.4E1,1.6E1,9E0,1.4246068E2,-1.3734581E2,2.1336915E0,1.3E1,4.0623724E2,-2.1276477E2,-5.798042E1,1.1E1,2.4208008E1,-6.941719E1,-6.51403E0,2.3190557E3,2.6118738E2,-1.5626918E2,-8.568393E1,9.418262E0,1.3625606E2],"split_indices":[5,4,4,0,3,4,6,3,4,5,6,0,0,4,4,4,0,0,0,4,0,0,0,4,0,0,0,3,0,0,0,0,0],"split_type":[0,0,0,0,0,0,0,0,0,0,0,0,0,0,0,0,0,0,0,0,0,0,0,0,0,0,0,0,0,0,0,0,0],"sum_hessian":[7E1,4E1,3E1,5E0,3.5E1,2.5E1,5E0,2.9E1,6E0,3E0,2.2E1,4E0,1E0,1.4E1,1.5E1,4E0,2E0,2E0,1E0,1.8E1,4E0,1.3E1,1E0,1.4E1,1E0,2E0,2E0,1.4E1,4E0,5E0,9E0,1E0,1.3E1],"tree_param":{"num_deleted":"0","num_feature":"24","num_nodes":"33","size_leaf_vector":"1"}},{"base_weights":[-2.2682693E2,-1.7105621E3,1.8579633E3,-2.5343801E3,-8.464377E2,5.226807E2,3.563896E3,-2.608732E3,-5.2367237E1,-1.4216782E3,-1.398125E1,-7.2817676E2,1.0597933E3,4.5458354E3,2.0728284E3,-2.725418E3,-1.0390381E2,-1.7467612E2,-7.512881E1,-6.4854395E2,7.502902E2,-1.9098307E1,-1.0779414E2,-4.3466373E2,1.3710277E3,1.1982715E2,4.904051E2,6.0135986E2,3.0260898E2,-2.999142E2,-1.6781126E2,-5.1476073E0,-7.576623E1,1.1823389E2,3.466934E1,-1.7182226E1,1.4317481E1,-6.722656E1,2.027002E0,1.6240213E2,7.426312E2,7.421641E1,8.947364E0,8.540523E1,1.4847363E1],"categories":[],"categories_nodes":[],"categories_segments":[],"categories_sizes":[],"default_left":[0,0,0,0,0,0,0,0,0,0,0,0,0,0,0,0,0,0,0,0,0,0,0,0,0,0,0,0,0,0,0,0,0,0,0,0,0,0,0,0,0,0,0,0,0],"id":19,"left_children":[1,3,5,7,9,11,13,15,-1,17,19,21,23,25,27,29,-1,-1,-1,31,33,35,-1,37,39,-1,-1,41,-1,-1,-1,-1,-1,-1,-1,-1,-1,-1,-1,-1,43,-1,-1,-1,-1],"loss_changes":[2.2280082E8,2.7753824E7,6.647429E7,1.77336E6,1.0515103E7,1.2865042E7,9.611056E6,8.31424E5,0E0,1.5208E6,5.336378E6,1.4674762E6,6.642579E6,2.517664E6,7.999094E6,1.27208E5,0E0,0E0,0E0,3.5190475E5,4.619585E5,9.894959E4,0E0,3.379062E5,5.42734E5,0E0,0E0,2.2189875E5,0E0,0E0,0E0,0E0,0E0,0E0,0E0,0E0,0E0,0E0,0E0,0E0,2.04204E5,0E0,0E0,0E0,0E0],"parents":[2147483647,0,0,1,1,2,2,3,3,4,4,5,5,6,6,7,7,9,9,10,10,11,11,12,12,13,13,14,14,15,15,19,19,20,20,21,21,23,23,24,24,27,27,40,40],"right_children":[2,4,6,8,10,12,14,16,-1,18,20,22,24,26,28,30,-1,-1,-1,32,34,36,-1,38,40,-1,-1,42,-1,-1,-1,-1,-1,-1,-1,-1,-1,-1,-1,-1,44,-1,-1,-1,-1],"split_conditions":[6.631509E2,1.1E1,1.2E1,1.999307E4,2.7677963E2,-4.3690282E-1,1.720891E4,5.3960364E2,-5.2367237E1,4.35257E3,1.3E1,1E1,6E0,1.490863E4,8E0,1E0,-1.0390381E2,-1.7467612E2,-7.512881E1,5.93865E3,2E0,3E0,-1.0779414E2,1.302615E3,5E0,1.1982715E2,4.904051E2,7E0,3.0260898E2,-2.999142E2,-1.6781126E2,-5.1476073E0,-7.576623E1,1.1823389E2,3.466934E1,-1.7182226E1,1.4317481E1,-6.722656E1,2.027002E0,1.6240213E2,2.952161E4,7.421641E1,8.947364E0,8.540523E1,1.4847363E1],"split_indices":[5,4,4,8,5,16,10,5,0,6,4,9,4,6,0,19,0,0,0,10,0,0,0,5,2,0,0,0,0,0,0,0,0,0,0,0,0,0,0,0,6,0,0,0,0],"split_type":[0,0,0,0,0,0,0,0,0,0,0,0,0,0,0,0,0,0,0,0,0,0,0,0,0,0,0,0,0,0,0,0,0,0,0,0,0,0,0,0,0,0,0,0,0],"sum_hessian":[7E1,4.1E1,2.9E1,2E1,2.1E1,1.7E1,1.2E1,1.9E1,1E0,1.2E1,9E0,5E0,1.2E1,6E0,6E0,1.7E1,2E0,7E0,5E0,5E0,4E0,2E0,3E0,2E0,1E1,1E0,5E0,3E0,3E0,1.2E1,5E0,1E0,4E0,1E0,3E0,1E0,1E0,1E0,1E0,6E0,4E0,2E0,1E0,3E0,1E0],"tree_param":{"num_deleted":"0","num_feature":"24","num_nodes":"45","size_leaf_vector":"1"}},{"base_weights":[2.3340527E2,-1.3826045E3,2.3653767E3,-1.9499807E3,-5.0356424E2,1.4603533E3,4.71707E3,-1.4338229E3,-2.8229828E2,-9.3298016E2,8.853963E2,8.210028E2,3.0784468E3,1.0379252E2,5.619979E3,-1.7783168E3,-5.892168E2,-1.2520411E3,-3.8947592E2,1.2786647E2,1.9699577E2,-3.298912E2,1.1293445E3,3.520655E2,1.3152846E2,1.3024669E2,6.1224866E2,-1.8445274E2,-4.9189404E1,-1.5736003E2,-7.304875E1,-1.328018E2,-3.221133E1,-6.775093E1,2.2040495E1,3.107754E1,-1.5281738E0,-4.803718E1,1.36015625E1,1.6244841E2,1.5540747E3,-3.545801E0,-2.0058203E1,-6.3865234E1,4.50399E1,1.7483165E2,4.5332485E1],"categories":[],"categories_nodes":[],"categories_segments":[],"categories_sizes":[],"default_left":[0,0,0,0,0,0,0,0,0,0,0,0,0,0,0,0,0,0,0,0,0,0,0,0,0,0,0,0,0,0,0,0,0,0,0,0,0,0,0,0,0,0,0,0,0,0,0],"id":20,"left_children":[1,3,5,7,9,11,13,15,-1,17,19,21,23,-1,25,27,29,31,33,-1,35,37,39,-1,-1,-1,-1,-1,-1,41,-1,-1,-1,-1,-1,-1,-1,-1,-1,43,45,-1,-1,-1,-1,-1,-1],"loss_changes":[2.7200275E8,2.1461648E7,6.547488E7,8.118728E6,1.215845E7,2.4370332E7,2.4064304E7,4.480456E6,0E0,2.113524E6,1.1017398E6,7.469934E6,8.27132E5,0E0,7.212736E6,1.99964E5,3.1211125E5,2.08105E5,1.3789888E6,0E0,7.720775E4,4.158878E5,6.318262E6,0E0,0E0,0E0,0E0,0E0,0E0,8.6943125E3,0E0,0E0,0E0,0E0,0E0,0E0,0E0,0E0,0E0,1.6717131E6,1.55937E6,0E0,0E0,0E0,0E0,0E0,0E0],"parents":[2147483647,0,0,1,1,2,2,3,3,4,4,5,5,6,6,7,7,9,9,10,10,11,11,12,12,14,14,15,15,16,16,17,17,18,18,20,20,21,21,22,22,29,29,39,39,40,40],"right_children":[2,4,6,8,10,12,14,16,-1,18,20,22,24,-1,26,28,30,32,34,-1,36,38,40,-1,-1,-1,-1,-1,-1,42,-1,-1,-1,-1,-1,-1,-1,-1,-1,44,46,-1,-1,-1,-1,-1,-1],"split_conditions":[8.653749E2,1.4251556E-1,6.124486E-1,1.2E1,1E0,1.6E1,6E0,1E0,-2.8229828E2,2.4453366E2,9.18507E3,-4.3690282E-1,1.9E1,1.0379252E2,1.1163201E3,2.1E1,8E0,1.3E1,1.1E1,1.2786647E2,6E0,1E1,1E1,3.520655E2,1.3152846E2,1.3024669E2,6.1224866E2,-1.8445274E2,-4.9189404E1,3E0,-7.304875E1,-1.328018E2,-3.221133E1,-6.775093E1,2.2040495E1,3.107754E1,-1.5281738E0,-4.803718E1,1.36015625E1,6.0973816E1,2.7604833E-1,-3.545801E0,-2.0058203E1,-6.3865234E1,4.50399E1,1.7483165E2,4.5332485E1],"split_indices":[5,16,16,0,21,7,7,21,0,5,10,16,7,0,5,7,9,9,7,0,0,0,9,0,0,0,0,0,0,0,0,0,0,0,0,0,0,0,0,13,16,0,0,0,0,0,0],"split_type":[0,0,0,0,0,0,0,0,0,0,0,0,0,0,0,0,0,0,0,0,0,0,0,0,0,0,0,0,0,0,0,0,0,0,0,0,0,0,0,0,0,0,0,0,0,0,0],"sum_hessian":[7.7E1,4.4E1,3.3E1,2.6E1,1.8E1,2.5E1,8E0,1.8E1,8E0,1.4E1,4E0,1.9E1,6E0,2E0,6E0,1.2E1,6E0,8E0,6E0,2E0,2E0,4E0,1.5E1,4E0,2E0,1E0,5E0,1.1E1,1E0,2E0,4E0,7E0,1E0,4E0,2E0,1E0,1E0,3E0,1E0,5E0,1E1,1E0,1E0,1E0,4E0,8E0,2E0],"tree_param":{"num_deleted":"0","num_feature":"24","num_nodes":"47","size_leaf_vector":"1"}},{"base_weights":[-1.7777008E2,-1.1099263E3,1.6936532E3,-1.695205E3,-3.491555E2,-1.5886372E3,2.213449E3,-2.2216975E3,-1.1614795E3,-7.974082E2,7.893376E2,-3.263672E-1,-2.1160074E2,1.3455193E3,3.8810815E3,-2.3169688E2,-5.3922207E1,-5.335376E1,-1.2653478E2,-9.042793E2,-2.2400732E2,3.890207E2,1.19341995E2,8.499114E2,2.0298805E2,1.7142696E2,4.404952E2,-2.415132E1,-9.3668335E1,-3.4023243E1,6.2333984E0,1.069458E1,4.32803E1,1.651634E1,9.8372614E2,1.0489978E2,2.3077637E1],"categories":[],"categories_nodes":[],"categories_segments":[],"categories_sizes":[],"default_left":[0,0,0,0,0,0,0,0,0,0,0,0,0,0,0,0,0,0,0,0,0,0,0,0,0,0,0,0,0,0,0,0,0,0,0,0,0],"id":21,"left_children":[1,3,5,7,9,11,13,15,17,19,21,-1,-1,23,25,-1,-1,-1,-1,27,29,31,-1,33,-1,-1,-1,-1,-1,-1,-1,-1,-1,-1,35,-1,-1],"loss_changes":[1.3096979E8,2.1671252E7,4.616939E7,5.287624E6,1.2367074E7,3.337408E6,2.6620456E7,8.34424E5,3.68462E5,8.39195E5,6.68062E5,0E0,0E0,3.701578E6,3.9464E5,0E0,0E0,0E0,0E0,7.4446E4,1.5432825E5,1.54629375E4,0E0,8.45448E5,0E0,0E0,0E0,0E0,0E0,0E0,0E0,0E0,0E0,0E0,2.00232E5,0E0,0E0],"parents":[2147483647,0,0,1,1,2,2,3,3,4,4,5,5,6,6,7,7,8,8,9,9,10,10,13,13,14,14,19,19,20,20,21,21,23,23,34,34],"right_children":[2,4,6,8,10,12,14,16,18,20,22,-1,-1,24,26,-1,-1,-1,-1,28,30,32,-1,34,-1,-1,-1,-1,-1,-1,-1,-1,-1,-1,36,-1,-1],"split_conditions":[2.337219E3,7.3457184E2,6E0,3.2740845E2,1.3E1,2.025E3,1.3E1,1.3E1,5E0,1E0,8.590419E3,-3.263672E-1,-2.1160074E2,2.8820376E3,2.4133525E3,-2.3169688E2,-5.3922207E1,-5.335376E1,-1.2653478E2,7.449109E2,7E0,4E0,1.19341995E2,-3.121333E-1,2.0298805E2,1.7142696E2,4.404952E2,-2.415132E1,-9.3668335E1,-3.4023243E1,6.2333984E0,1.069458E1,4.32803E1,1.651634E1,1.1E1,1.0489978E2,2.3077637E1],"split_indices":[3,3,4,3,4,1,4,4,0,22,15,0,0,3,3,0,0,0,0,3,0,0,0,16,0,0,0,0,0,0,0,0,0,0,2,0,0],"split_type":[0,0,0,0,0,0,0,0,0,0,0,0,0,0,0,0,0,0,0,0,0,0,0,0,0,0,0,0,0,0,0,0,0,0,0,0,0],"sum_hessian":[7.3E1,4.9E1,2.4E1,2.7E1,2.2E1,3E0,2.1E1,1.2E1,1.5E1,1.6E1,6E0,1E0,2E0,1.5E1,6E0,1.1E1,1E0,3E0,1.2E1,1.3E1,3E0,4E0,2E0,1E1,5E0,2E0,4E0,1E0,1.2E1,2E0,1E0,1E0,3E0,2E0,8E0,7E0,1E0],"tree_param":{"num_deleted":"0","num_feature":"24","num_nodes":"37","size_leaf_vector":"1"}},{"base_weights":[1.9610367E2,-1.0983676E3,2.1312737E3,-2.6629434E2,-7.8938306E2,1.3492391E3,5.034539E3,-1.4624762E3,-3.539518E2,4.7831915E2,2.6077874E3,5.542108E2,1.2483477E2,-1.7698631E2,-9.722798E1,-6.5693225E2,5.1898816E2,-2.7468344E2,9.5758905E2,9.719332E2,3.536368E3,-1.3088379E0,-6.919742E2,-6.3962646E1,9.721919E2,-5.4708655E2,2.708828E2,1.342194E3,3.0454533E1,2.585625E1,1.0856353E2,9.991133E1,3.8439963E2,-3.372666E1,-7.6922874E1,-2.0527117E1,1.7998144E1,2.7359571E1,1.1138588E2,-1.2220118E1,-6.2275757E1,3.4710743E1,5.92168E0,3.1418262E1,1.4849597E2],"categories":[],"categories_nodes":[],"categories_segments":[],"categories_sizes":[],"default_left":[0,0,0,0,0,0,0,0,0,0,0,0,0,0,0,0,0,0,0,0,0,0,0,0,0,0,0,0,0,0,0,0,0,0,0,0,0,0,0,0,0,0,0,0,0],"id":22,"left_children":[1,3,5,-1,7,9,11,13,15,17,19,-1,-1,-1,-1,21,23,25,27,29,31,-1,33,35,37,39,41,43,-1,-1,-1,-1,-1,-1,-1,-1,-1,-1,-1,-1,-1,-1,-1,-1,-1],"loss_changes":[1.8771256E8,1.9652252E7,6.1320816E7,0E0,1.0912702E7,2.615502E7,4.612032E6,5.39396E5,6.953033E6,6.0372975E6,1.1753104E7,0E0,0E0,0E0,0E0,4.196125E5,1.9115524E6,1.1884938E6,2.10288E6,1.248535E5,8.426E5,0E0,2.33815E5,1.7483052E5,9.112475E4,8.4656E4,2.784789E4,4.14039E5,0E0,0E0,0E0,0E0,0E0,0E0,0E0,0E0,0E0,0E0,0E0,0E0,0E0,0E0,0E0,0E0,0E0],"parents":[2147483647,0,0,1,1,2,2,4,4,5,5,6,6,7,7,8,8,9,9,10,10,15,15,16,16,17,17,18,18,19,19,20,20,22,22,23,23,24,24,25,25,26,26,27,27],"right_children":[2,4,6,-1,8,10,12,14,16,18,20,-1,-1,-1,-1,22,24,26,28,30,32,-1,34,36,38,40,42,44,-1,-1,-1,-1,-1,-1,-1,-1,-1,-1,-1,-1,-1,-1,-1,-1,-1],"split_conditions":[8.653749E2,7E0,1.7E1,-2.6629434E2,4.9145306E2,2.8595974E3,1.1E1,3.010823E2,1.3E1,2.337219E3,1E1,5.542108E2,1.2483477E2,-1.7698631E2,-9.722798E1,6.0973816E1,8.8233E2,1.2E1,1E1,4E0,2.4680855E2,-1.3088379E0,8E0,5.0647833E2,9.902455E2,3E0,2.1511138E3,1E1,3.0454533E1,2.585625E1,1.0856353E2,9.991133E1,3.8439963E2,-3.372666E1,-7.6922874E1,-2.0527117E1,1.7998144E1,2.7359571E1,1.1138588E2,-1.2220118E1,-6.2275757E1,3.4710743E1,5.92168E0,3.1418262E1,1.4849597E2],"split_indices":[5,4,4,0,3,3,0,3,4,3,4,0,0,0,0,13,3,4,7,0,13,0,7,3,3,0,3,4,0,0,0,0,0,0,0,0,0,0,0,0,0,0,0,0,0],"split_type":[0,0,0,0,0,0,0,0,0,0,0,0,0,0,0,0,0,0,0,0,0,0,0,0,0,0,0,0,0,0,0,0,0,0,0,0,0,0,0,0,0,0,0,0,0],"sum_hessian":[7.3E1,4.4E1,2.9E1,6E0,3.8E1,2.4E1,5E0,1.4E1,2.4E1,1.5E1,9E0,4E0,1E0,7E0,7E0,1.8E1,6E0,6E0,9E0,4E0,5E0,1E0,1.7E1,3E0,3E0,4E0,2E0,5E0,4E0,1E0,3E0,1E0,4E0,4E0,1.3E1,2E0,1E0,1E0,2E0,1E0,3E0,1E0,1E0,1E0,4E0],"tree_param":{"num_deleted":"0","num_feature":"24","num_nodes":"45","size_leaf_vector":"1"}},{"base_weights":[-1.0784992E2,-1.0120572E3,1.266524E3,-1.5797306E3,-5.3304987E2,6.956679E2,2.3957551E3,-1.158624E3,-2.1192007E2,-9.1017834E2,3.223379E2,-8.791135E2,9.9058673E2,7.8960014E1,2.9713071E3,-1.219087E3,-1.8630224E1,-1.19322655E2,-5.361123E2,7.048019E1,8.025599E1,-1.1609082E1,-1.09475746E2,3.297412E2,1.3486016E3,3.26345E2,6.0922558E1,-1.3335951E3,-6.2804516E1,-8.091455E0,-5.7769936E1,-7.846094E1,1.45748825E1,-3.3897266E1,4.7369644E2,5.6046875E2,1.6726094E3,-1.3982903E2,-3.7566895E1,-1.0525733E1,-1.2434082E0,5.2096416E1,9.504493E0,6.7245804E1,5.625586E0,2.9847364E1,1.8262755E2],"categories":[],"categories_nodes":[],"categories_segments":[],"categories_sizes":[],"default_left":[0,0,0,0,0,0,0,0,0,0,0,0,0,0,0,0,0,0,0,0,0,0,0,0,0,0,0,0,0,0,0,0,0,0,0,0,0,0,0,0,0,0,0,0,0,0,0],"id":23,"left_children":[1,3,5,7,9,11,13,15,-1,17,19,21,23,-1,25,27,-1,-1,29,31,-1,-1,-1,33,35,-1,-1,37,-1,-1,-1,39,-1,-1,41,43,45,-1,-1,-1,-1,-1,-1,-1,-1,-1,-1],"loss_changes":[9.697115E7,1.1938148E7,1.8316832E7,2.315308E6,9.003342E6,1.1088357E7,6.898116E6,5.95938E5,0E0,1.371991E6,1.03196394E6,5.31074E5,4.050568E6,0E0,2.842272E6,4.2266E4,0E0,0E0,1.42559E5,8.9909766E4,0E0,0E0,0E0,9.306889E5,2.126888E6,0E0,0E0,9.444E4,0E0,0E0,0E0,3.9990645E3,0E0,0E0,7.5771125E4,2.445025E5,1.144172E6,0E0,0E0,0E0,0E0,0E0,0E0,0E0,0E0,0E0,0E0],"parents":[2147483647,0,0,1,1,2,2,3,3,4,4,5,5,6,6,7,7,9,9,10,10,11,11,12,12,14,14,15,15,18,18,19,19,23,23,24,24,27,27,31,31,34,34,35,35,36,36],"right_children":[2,4,6,8,10,12,14,16,-1,18,20,22,24,-1,26,28,-1,-1,30,32,-1,-1,-1,34,36,-1,-1,38,-1,-1,-1,40,-1,-1,42,44,46,-1,-1,-1,-1,-1,-1,-1,-1,-1,-1],"split_conditions":[5.9882196E2,1.1E1,2.8820376E3,9E0,8.282572E2,9E0,1E1,5.7026715E2,-2.1192007E2,4.35257E3,7.126098E-1,3E0,6.361825E3,7.8960014E1,1.2956896E3,1.4E1,-1.8630224E1,-1.19322655E2,1.5271133E2,1.2E1,8.025599E1,-1.1609082E1,-1.09475746E2,1.0507775E3,2.3464653E3,3.26345E2,6.0922558E1,7.33758E2,-6.2804516E1,-8.091455E0,-5.7769936E1,9E0,1.45748825E1,-3.3897266E1,3.431517E4,1E0,1E1,-1.3982903E2,-3.7566895E1,-1.0525733E1,-1.2434082E0,5.2096416E1,9.504493E0,6.7245804E1,5.625586E0,2.9847364E1,1.8262755E2],"split_indices":[5,4,3,0,3,4,4,5,0,6,16,0,12,0,5,7,0,0,5,4,0,0,0,3,3,0,0,3,0,0,0,0,0,0,6,22,4,0,0,0,0,0,0,0,0,0,0],"split_type":[0,0,0,0,0,0,0,0,0,0,0,0,0,0,0,0,0,0,0,0,0,0,0,0,0,0,0,0,0,0,0,0,0,0,0,0,0,0,0,0,0,0,0,0,0,0,0],"sum_hessian":[7.6E1,4.6E1,3E1,2E1,2.6E1,2.1E1,9E0,1.3E1,7E0,1.8E1,8E0,3E0,1.8E1,3E0,6E0,1.2E1,1E0,9E0,9E0,6E0,2E0,1E0,2E0,7E0,1.1E1,5E0,1E0,9E0,3E0,1E0,8E0,2E0,4E0,1E0,6E0,4E0,7E0,8E0,1E0,1E0,1E0,5E0,1E0,3E0,1E0,1E0,6E0],"tree_param":{"num_deleted":"0","num_feature":"24","num_nodes":"47","size_leaf_vector":"1"}},{"base_weights":[1.9243011E2,-8.76621E2,1.5561383E3,-1.135067E3,3.8068504E1,4.271516E2,2.6584282E3,-1.4207983E3,-7.165183E2,-5.334693E2,7.163002E2,-9.327026E1,1.3968033E3,1.5501213E3,3.861948E3,-1.4631136E2,-3.507196E1,-8.078863E2,-2.632849E2,-6.7297966E1,-1.696325E1,2.0340008E1,9.904336E1,-6.175493E2,3.694361E2,1.5937024E2,2.061543E1,5.927197E2,2.388979E2,9.8606834E1,4.1769165E2,-8.906449E1,-4.1970776E2,-3.4317154E1,-1.18125E0,-1.02177376E2,-1.5999365E2,-3.277383E1,5.402549E2,5.344336E0,6.898864E1,-4.9294727E1,-9.999463E0,-2.3727703E1,3.5928223E0,6.762549E1,1.788366E1],"categories":[],"categories_nodes":[],"categories_segments":[],"categories_sizes":[],"default_left":[0,0,0,0,0,0,0,0,0,0,0,0,0,0,0,0,0,0,0,0,0,0,0,0,0,0,0,0,0,0,0,0,0,0,0,0,0,0,0,0,0,0,0,0,0,0,0],"id":24,"left_children":[1,3,5,7,9,11,13,15,17,19,21,23,25,27,29,-1,-1,31,33,-1,-1,-1,-1,35,37,-1,-1,39,-1,-1,-1,-1,41,-1,-1,-1,43,-1,45,-1,-1,-1,-1,-1,-1,-1,-1],"loss_changes":[1.0633105E8,9.735526E6,3.8687504E7,2.808928E6,4.258475E6,8.708957E6,1.5355424E7,3.01908E5,4.08461E5,1.9039462E5,5.01561E5,3.1391922E6,1.078076E6,6.615242E6,2.22196E6,0E0,0E0,1.1691E4,7.630341E4,0E0,0E0,0E0,0E0,9.46254E5,1.01069556E6,0E0,0E0,2.7752825E5,0E0,0E0,0E0,0E0,4.4370438E4,0E0,0E0,0E0,6.909094E4,0E0,1.7397825E5,0E0,0E0,0E0,0E0,0E0,0E0,0E0,0E0],"parents":[2147483647,0,0,1,1,2,2,3,3,4,4,5,5,6,6,7,7,8,8,9,9,10,10,11,11,12,12,13,13,14,14,17,17,18,18,23,23,24,24,27,27,32,32,36,36,38,38],"right_children":[2,4,6,8,10,12,14,16,18,20,22,24,26,28,30,-1,-1,32,34,-1,-1,-1,-1,36,38,-1,-1,40,-1,-1,-1,-1,42,-1,-1,-1,44,-1,46,-1,-1,-1,-1,-1,-1,-1,-1],"split_conditions":[6.631509E2,1.3E1,1.2E1,3.1189203E2,5.0647833E2,2.8166108E3,5.396317E-1,3.724267E4,2.1225746E-1,3.8704364E2,9.902455E2,9E0,3.265214E3,3.431517E4,1.1163201E3,-1.4631136E2,-3.507196E1,1.367022E4,7.80805E2,-6.7297966E1,-1.696325E1,2.0340008E1,9.904336E1,1.1269025E4,2.0763164E3,1.5937024E2,2.061543E1,1.930682E4,2.388979E2,9.8606834E1,4.1769165E2,-8.906449E1,9E0,-3.4317154E1,-1.18125E0,-1.02177376E2,1E1,-3.277383E1,2.775173E4,5.344336E0,6.898864E1,-4.9294727E1,-9.999463E0,-2.3727703E1,3.5928223E0,6.762549E1,1.788366E1],"split_indices":[5,4,4,5,3,3,16,12,16,3,3,4,3,6,5,0,0,10,3,0,0,0,0,12,3,0,0,6,0,0,0,0,4,0,0,0,0,0,10,0,0,0,0,0,0,0,0],"split_type":[0,0,0,0,0,0,0,0,0,0,0,0,0,0,0,0,0,0,0,0,0,0,0,0,0,0,0,0,0,0,0,0,0,0,0,0,0,0,0,0,0,0,0,0,0,0,0],"sum_hessian":[7.1E1,4E1,3.1E1,3.1E1,9E0,1.6E1,1.5E1,1.7E1,1.4E1,5E0,4E0,1.1E1,5E0,9E0,6E0,1.6E1,1E0,1.1E1,3E0,3E0,2E0,2E0,2E0,5E0,6E0,4E0,1E0,5E0,4E0,1E0,5E0,8E0,3E0,2E0,1E0,2E0,3E0,1E0,5E0,1E0,4E0,2E0,1E0,2E0,1E0,3E0,2E0],"tree_param":{"num_deleted":"0","num_feature":"24","num_nodes":"47","size_leaf_vector":"1"}},{"base_weights":[2.5242426E1,-8.867011E2,1.3187996E3,-2.1542906E2,-6.298635E2,7.37823E2,4.1923135E3,-9.1476276E2,-7.612465E1,-5.8736053E2,9.938271E2,4.7528085E2,9.75166E1,-1.1448925E3,-5.700478E2,-4.565246E2,6.999002E2,1.958467E1,-8.32124E2,-3.5916798E1,1.2125056E3,-3.331837E1,-1.1817022E2,-6.3707375E1,-1.5661199E1,-1.9122098E2,-8.066748E1,2.420954E1,9.24405E1,-2.3376514E1,-9.536553E1,-2.7318228E1,2.1332097E2,6.6731946E2,1.5483394E3,-1.2889453E0,-4.2469986E1,2.6920996E1,5.0771484E0,8.135157E0,7.303965E1,3.3045704E1,1.7822624E2],"categories":[],"categories_nodes":[],"categories_segments":[],"categories_sizes":[],"default_left":[0,0,0,0,0,0,0,0,0,0,0,0,0,0,0,0,0,0,0,0,0,0,0,0,0,0,0,0,0,0,0,0,0,0,0,0,0,0,0,0,0,0,0],"id":25,"left_children":[1,3,5,-1,7,9,11,13,15,17,19,-1,-1,21,23,25,27,-1,29,31,33,-1,-1,-1,-1,35,-1,-1,-1,-1,-1,-1,37,39,41,-1,-1,-1,-1,-1,-1,-1,-1],"loss_changes":[8.846355E7,1.2967932E7,4.865959E7,0E0,5.925233E6,9.743551E6,4.3812E6,1.330588E6,4.4523195E6,1.1214712E6,5.222756E6,0E0,0E0,2.4576E4,2.327575E5,7.74708E5,2.901025E5,0E0,6.7946E4,3.539531E5,2.445508E6,0E0,0E0,0E0,0E0,2.8598238E5,0E0,0E0,0E0,0E0,0E0,0E0,1.3585984E4,2.7323075E5,2.544838E6,0E0,0E0,0E0,0E0,0E0,0E0,0E0,0E0],"parents":[2147483647,0,0,1,1,2,2,4,4,5,5,6,6,7,7,8,8,9,9,10,10,13,13,14,14,15,15,16,16,18,18,19,19,20,20,25,25,32,32,33,33,34,34],"right_children":[2,4,6,-1,8,10,12,14,16,18,20,-1,-1,22,24,26,28,-1,30,32,34,-1,-1,-1,-1,36,-1,-1,-1,-1,-1,-1,38,40,42,-1,-1,-1,-1,-1,-1,-1,-1],"split_conditions":[8.653749E2,7E0,1.7E1,-2.1542906E2,8.282572E2,8E0,1.1E1,4.5367728E2,1.3E1,4E0,2.3190557E3,4.7528085E2,9.75166E1,9.1446365E1,8E0,1.4E1,9.902455E2,1.958467E1,1E1,7E0,1.1E1,-3.331837E1,-1.1817022E2,-6.3707375E1,-1.5661199E1,1.803514E4,-8.066748E1,2.420954E1,9.24405E1,-2.3376514E1,-9.536553E1,-2.7318228E1,2.1511138E3,5.5596733E3,5.23666E3,-1.2889453E0,-4.2469986E1,2.6920996E1,5.0771484E0,8.135157E0,7.303965E1,3.3045704E1,1.7822624E2],"split_indices":[5,4,4,0,3,4,0,3,4,0,3,0,0,5,0,7,3,0,0,0,4,0,0,0,0,8,0,0,0,0,0,0,3,14,12,0,0,0,0,0,0,0,0],"split_type":[0,0,0,0,0,0,0,0,0,0,0,0,0,0,0,0,0,0,0,0,0,0,0,0,0,0,0,0,0,0,0,0,0,0,0,0,0,0,0,0,0,0,0],"sum_hessian":[7.3E1,4.3E1,3E1,6E0,3.7E1,2.6E1,4E0,2.4E1,1.3E1,4E0,2.2E1,3E0,1E0,1.3E1,1.1E1,9E0,4E0,1E0,3E0,4E0,1.8E1,1E0,1.2E1,9E0,2E0,6E0,3E0,2E0,2E0,1E0,2E0,2E0,2E0,8E0,1E1,4E0,2E0,1E0,1E0,1E0,7E0,2E0,8E0],"tree_param":{"num_deleted":"0","num_feature":"24","num_nodes":"43","size_leaf_vector":"1"}},{"base_weights":[1.5352023E2,-7.358822E2,1.3822552E3,-1.9452995E2,-5.255562E2,8.0903186E2,3.6358474E3,-7.7163336E2,7.191366E1,3.3080478E2,2.347988E3,5.704912E1,4.1348203E2,-8.172345E2,-1.3441277E2,-5.18882E2,4.3217175E2,-7.39824E2,5.5034424E2,2.632562E2,4.625596E1,-1.2857276E1,-8.4057153E2,8.949951E0,-2.9111866E1,-5.7998035E1,-1.3724439E1,1.4484033E2,8.627773E1,-8.383809E1,-2.2207666E1,1.3199248E2,9.5403015E2,-8.585661E1,-2.1334839E1,2.1700196E0,2.0098536E1,-3.0666763E1,2.7999098E1,3.0842579E1,1.0944277E2],"categories":[],"categories_nodes":[],"categories_segments":[],"categories_sizes":[],"default_left":[0,0,0,0,0,0,0,0,0,0,0,0,0,0,0,0,0,0,0,0,0,0,0,0,0,0,0,0,0,0,0,0,0,0,0,0,0,0,0,0,0],"id":26,"left_children":[1,3,5,-1,7,9,11,13,15,17,19,-1,-1,21,23,25,27,29,31,-1,-1,-1,33,-1,-1,-1,-1,35,-1,-1,-1,37,39,-1,-1,-1,-1,-1,-1,-1,-1],"loss_changes":[8.07945E7,9.915626E6,3.7104644E7,0E0,5.642391E6,1.8358506E7,6.818304E6,6.74718E5,2.778313E6,5.343108E6,2.001546E6,0E0,0E0,2.9371E5,1.313201E5,3.6988E4,8.648471E5,1.792525E4,2.913964E6,0E0,0E0,0E0,8.7706E4,0E0,0E0,0E0,0E0,3.712082E4,0E0,0E0,0E0,7.350745E5,4.78222E5,0E0,0E0,0E0,0E0,0E0,0E0,0E0,0E0],"parents":[2147483647,0,0,1,1,2,2,4,4,5,5,6,6,7,7,8,8,9,9,10,10,13,13,14,14,15,15,16,16,17,17,18,18,22,22,27,27,31,31,32,32],"right_children":[2,4,6,-1,8,10,12,14,16,18,20,-1,-1,22,24,26,28,30,32,-1,-1,-1,34,-1,-1,-1,-1,36,-1,-1,-1,38,40,-1,-1,-1,-1,-1,-1,-1,-1],"split_conditions":[8.653749E2,7E0,6.124486E-1,-1.9452995E2,4.3045396E-1,3.918257E4,1.2386349E3,1.3318992E3,7.80805E2,-4.651114E-1,1.3365475E3,5.704912E1,4.1348203E2,8E0,3E0,1.4E1,1.1225684E3,3.078624E4,2.6834211E3,2.632562E2,4.625596E1,-1.2857276E1,1.7E1,8.949951E0,-2.9111866E1,-5.7998035E1,-1.3724439E1,1.3E1,8.627773E1,-8.383809E1,-2.2207666E1,2.235855E3,6.061933E3,-8.585661E1,-2.1334839E1,2.1700196E0,2.0098536E1,-3.0666763E1,2.7999098E1,3.0842579E1,1.0944277E2],"split_indices":[5,4,16,0,16,6,5,3,3,16,5,0,0,7,2,4,3,8,3,0,0,0,4,0,0,0,0,4,0,0,0,3,14,0,0,0,0,0,0,0,0],"split_type":[0,0,0,0,0,0,0,0,0,0,0,0,0,0,0,0,0,0,0,0,0,0,0,0,0,0,0,0,0,0,0,0,0,0,0,0,0,0,0,0,0],"sum_hessian":[7.2E1,4.2E1,3E1,5E0,3.7E1,2.5E1,5E0,2.6E1,1.1E1,2E1,5E0,1E0,4E0,2.4E1,2E0,4E0,7E0,3E0,1.7E1,4E0,1E0,1E0,2.3E1,1E0,1E0,3E0,1E0,5E0,2E0,2E0,1E0,9E0,8E0,2.2E1,1E0,2E0,3E0,2E0,7E0,2E0,6E0],"tree_param":{"num_deleted":"0","num_feature":"24","num_nodes":"41","size_leaf_vector":"1"}},{"base_weights":[-6.614727E1,-7.384843E2,9.024043E2,-1.3838527E3,-4.1289023E2,3.741838E2,2.7354512E3,-1.9027647E2,-9.341202E2,-6.5481757E2,1.8483163E2,-4.2750726E2,6.360665E2,4.4297363E1,3.043702E3,-1.01374084E3,-1.0876709E1,-1.0864683E2,-4.745552E2,-7.05542E0,6.349199E2,1.9859766E1,-7.176688E1,4.0484558E2,1.4597388E2,1.2141471E2,3.6549423E2,-2.7318409E1,-1.0721624E2,-5.1263715E2,-1.132666E2,-1.6982349E2,1.2457011E1,7.649151E1,1.8746485E1,7.4552407E0,5.6980365E2,-3.0501127E1,-5.7928425E1,-1.7628418E0,-1.5227149E1,-2.765625E1,-4.2056317E0,-1.8693523E1,1.5138428E1,6.204264E1,6.4765626E-1],"categories":[],"categories_nodes":[],"categories_segments":[],"categories_sizes":[],"default_left":[0,0,0,0,0,0,0,0,0,0,0,0,0,0,0,0,0,0,0,0,0,0,0,0,0,0,0,0,0,0,0,0,0,0,0,0,0,0,0,0,0,0,0,0,0,0,0],"id":27,"left_children":[1,3,5,7,9,11,13,-1,15,17,19,21,23,-1,25,27,-1,-1,29,31,33,-1,-1,35,-1,-1,-1,-1,-1,37,39,41,-1,-1,-1,43,45,-1,-1,-1,-1,-1,-1,-1,-1,-1,-1],"loss_changes":[5.0808276E7,9.094516E6,2.9960532E7,1.723164E6,4.7483995E6,5.730597E6,3.598324E6,0E0,5.46891E5,1.274049E6,8.6814075E5,1.4142281E6,3.218036E6,0E0,2.272152E6,9.6482E4,0E0,0E0,1.895895E5,1.9255039E5,3.110625E4,0E0,0E0,1.1101485E6,0E0,0E0,0E0,0E0,0E0,4.47145E4,8.506766E3,4.2919766E4,0E0,0E0,0E0,1.9616964E5,3.38188E5,0E0,0E0,0E0,0E0,0E0,0E0,0E0,0E0,0E0,0E0],"parents":[2147483647,0,0,1,1,2,2,3,3,4,4,5,5,6,6,8,8,9,9,10,10,11,11,12,12,14,14,15,15,18,18,19,19,20,20,23,23,29,29,30,30,31,31,35,35,36,36],"right_children":[2,4,6,8,10,12,14,-1,16,18,20,22,24,-1,26,28,-1,-1,30,32,34,-1,-1,36,-1,-1,-1,-1,-1,38,40,42,-1,-1,-1,44,46,-1,-1,-1,-1,-1,-1,-1,-1,-1,-1],"split_conditions":[5.9882196E2,1E1,1.5E1,7E0,8.282572E2,1.1417124E3,1.1481338E3,-1.9027647E2,9.810539E2,3.010823E2,7.126098E-1,3.0728933E3,3.379933E4,4.4297363E1,0E0,4E0,-1.0876709E1,-1.0864683E2,1.1E1,1.2E1,2E0,1.9859766E1,-7.176688E1,-3.121333E-1,1.4597388E2,1.2141471E2,3.6549423E2,-2.7318409E1,-1.0721624E2,2.1449844E2,1.2E1,4E0,1.2457011E1,7.649151E1,1.8746485E1,2.337219E3,1.0943746E4,-3.0501127E1,-5.7928425E1,-1.7628418E0,-1.5227149E1,-2.765625E1,-4.2056317E0,-1.8693523E1,1.5138428E1,6.204264E1,6.4765626E-1],"split_indices":[5,4,4,4,3,15,3,0,3,3,16,14,10,0,16,0,0,0,0,4,0,0,0,16,0,0,0,0,0,5,0,0,0,0,0,3,15,0,0,0,0,0,0,0,0,0,0],"split_type":[0,0,0,0,0,0,0,0,0,0,0,0,0,0,0,0,0,0,0,0,0,0,0,0,0,0,0,0,0,0,0,0,0,0,0,0,0,0,0,0,0,0,0,0,0,0,0],"sum_hessian":[7.6E1,4.5E1,3.1E1,1.4E1,3.1E1,2.5E1,6E0,5E0,9E0,2.2E1,9E0,6E0,1.9E1,1E0,5E0,8E0,1E0,5E0,1.7E1,7E0,2E0,2E0,4E0,1.6E1,3E0,2E0,3E0,1E0,7E0,1.5E1,2E0,3E0,4E0,1E0,1E0,5E0,1.1E1,5E0,1E1,1E0,1E0,1E0,2E0,2E0,3E0,1E1,1E0],"tree_param":{"num_deleted":"0","num_feature":"24","num_nodes":"47","size_leaf_vector":"1"}},{"base_weights":[8.083648E1,-7.0217365E2,1.0512177E3,-1.2588159E3,-3.6692154E2,6.1977856E2,3.343321E3,-2.511263E1,-1.3945277E3,-5.0334805E2,1.9446265E2,2.037631E2,1.521617E3,3.8121152E2,7.340723E1,-1.6118866E3,-7.2437614E1,-3.170481E2,-7.3722046E2,-9.378076E1,3.6202953E1,-5.646613E2,4.1778424E2,6.170407E2,2.4980772E2,-1.7032211E2,-4.4060547E1,-4.7396095E1,-4.2016928E2,-7.932086E1,-1.4465772E1,4.6759276E0,-1.8743042E1,-8.040658E1,-1.3703645E2,2.5902405E2,7.470039E1,6.909434E1,1.2376368E1,-1.7097998E1,2.6244874E0,-4.7481342E1,3.5813966E0,-3.9282227E-1,-2.0162647E1,-3.7914715E0,3.164597E1],"categories":[],"categories_nodes":[],"categories_segments":[],"categories_sizes":[],"default_left":[0,0,0,0,0,0,0,0,0,0,0,0,0,0,0,0,0,0,0,0,0,0,0,0,0,0,0,0,0,0,0,0,0,0,0,0,0,0,0,0,0,0,0,0,0,0,0],"id":28,"left_children":[1,3,5,7,9,11,13,-1,15,17,19,21,23,-1,-1,25,-1,27,29,31,-1,33,35,37,-1,-1,-1,39,41,-1,-1,-1,-1,-1,43,45,-1,-1,-1,-1,-1,-1,-1,-1,-1,-1,-1],"loss_changes":[5.6204876E7,7.189348E6,3.056168E7,1.701128E6,2.1657502E6,1.0570134E7,3.317636E6,0E0,7.26016E5,7.24815E5,3.2375175E5,3.689547E6,6.40813E6,0E0,0E0,2.12354E5,0E0,3.6938125E5,1.838445E5,4.8248695E4,0E0,4.0169E5,6.9504675E5,1.3321325E5,0E0,0E0,0E0,4.999153E4,2.66173E5,0E0,0E0,0E0,0E0,0E0,2.5000348E4,2.3371188E5,0E0,0E0,0E0,0E0,0E0,0E0,0E0,0E0,0E0,0E0,0E0],"parents":[2147483647,0,0,1,1,2,2,3,3,4,4,5,5,6,6,8,8,9,9,10,10,11,11,12,12,15,15,17,17,18,18,19,19,21,21,22,22,23,23,27,27,28,28,34,34,35,35],"right_children":[2,4,6,8,10,12,14,-1,16,18,20,22,24,-1,-1,26,-1,28,30,32,-1,34,36,38,-1,-1,-1,40,42,-1,-1,-1,-1,-1,44,46,-1,-1,-1,-1,-1,-1,-1,-1,-1,-1,-1],"split_conditions":[6.631509E2,1E1,1.7E1,5.1748193E2,1.7E1,2.8820376E3,1.1E1,-2.511263E1,5.634319E3,1.1E1,8.7267E2,8E0,1.2E1,3.8121152E2,7.340723E1,5.3960364E2,-7.2437614E1,3.3452515E3,1.2E1,4E0,3.6202953E1,1.1269025E4,1.4E1,3.217448E3,2.4980772E2,-1.7032211E2,-4.4060547E1,1.1E1,5.234356E2,-7.932086E1,-1.4465772E1,4.6759276E0,-1.8743042E1,-8.040658E1,2.025E3,2.3190557E3,7.470039E1,6.909434E1,1.2376368E1,-1.7097998E1,2.6244874E0,-4.7481342E1,3.5813966E0,-3.9282227E-1,-2.0162647E1,-3.7914715E0,3.164597E1],"split_indices":[5,4,4,13,4,3,2,0,13,11,3,4,4,0,0,5,0,13,2,2,0,12,4,3,0,0,0,4,5,0,0,0,0,0,1,3,0,0,0,0,0,0,0,0,0,0,0],"split_type":[0,0,0,0,0,0,0,0,0,0,0,0,0,0,0,0,0,0,0,0,0,0,0,0,0,0,0,0,0,0,0,0,0,0,0,0,0,0,0,0,0,0,0,0,0,0,0],"sum_hessian":[7.2E1,4E1,3.2E1,1.4E1,2.6E1,2.8E1,4E0,2E0,1.2E1,2.1E1,5E0,2E1,8E0,3E0,1E0,8E0,4E0,1.3E1,8E0,2E0,3E0,4E0,1.6E1,5E0,3E0,7E0,1E0,4E0,9E0,7E0,1E0,1E0,1E0,2E0,2E0,1.2E1,4E0,4E0,1E0,1E0,3E0,8E0,1E0,1E0,1E0,2E0,1E1],"tree_param":{"num_deleted":"0","num_feature":"24","num_nodes":"47","size_leaf_vector":"1"}},{"base_weights":[1.5023581E2,-3.67323E2,1.8958387E3,-7.4716144E2,2.4939299E2,1.3279164E3,3.5515878E2,-1.165971E2,-5.3335126E2,-2.1486095E2,1.047023E3,8.3813666E2,2.1398484E3,-8.509434E2,-3.7964685E2,-7.613433E2,3.0745117E1,1.3599088E3,3.1593847E1,-3.7319335E-1,9.2269666E2,2.616023E2,1.175752E1,-2.9288527E1,-9.8814865E1,-4.4351428E2,-1.3298462E1,-3.680845E1,-1.1671893E2,-1.1387472E2,1.9434407E2,4.0272366E1,1.4708012E2,9.848254E1,1.8176954E1,-4.7002663E1,-9.658691E-1,-1.7805883E1,1.0097461E1,-2.5758764E1,5.8306885E0,2.3708126E1,-9.6708983E-1],"categories":[],"categories_nodes":[],"categories_segments":[],"categories_sizes":[],"default_left":[0,0,0,0,0,0,0,0,0,0,0,0,0,0,0,0,0,0,0,0,0,0,0,0,0,0,0,0,0,0,0,0,0,0,0,0,0,0,0,0,0,0,0],"id":29,"left_children":[1,3,5,7,9,11,-1,-1,13,15,17,19,21,23,25,27,29,31,-1,-1,33,-1,-1,-1,-1,35,37,-1,-1,39,41,-1,-1,-1,-1,-1,-1,-1,-1,-1,-1,-1,-1],"loss_changes":[7.1165656E7,1.4475736E7,1.2209856E7,2.780866E6,9.112234E6,4.171532E6,0E0,0E0,9.94956E5,2.170918E6,1.629066E6,7.86517E5,4.507196E6,3.23134E5,4.6205675E5,3.6838825E5,3.0604672E5,4.4541E4,0E0,0E0,2.81316E5,0E0,0E0,0E0,0E0,1.9100275E5,9.329012E4,0E0,0E0,1.8823222E5,5.4606953E4,0E0,0E0,0E0,0E0,0E0,0E0,0E0,0E0,0E0,0E0,0E0,0E0],"parents":[2147483647,0,0,1,1,2,2,3,3,4,4,5,5,8,8,9,9,10,10,11,11,12,12,13,13,14,14,15,15,16,16,17,17,20,20,25,25,26,26,29,29,30,30],"right_children":[2,4,6,8,10,12,-1,-1,14,16,18,20,22,24,26,28,30,32,-1,-1,34,-1,-1,-1,-1,36,38,-1,-1,40,42,-1,-1,-1,-1,-1,-1,-1,-1,-1,-1,-1,-1],"split_conditions":[2.56552E3,1.0798484E3,1.5E1,3.2740845E2,1.3E1,3.19742E3,3.5515878E2,-1.165971E2,1E1,8E0,1.930682E4,2.025E3,3.664535E3,3.9462842E2,1.7E1,1E1,2.3190557E3,1.1481338E3,3.1593847E1,-3.7319335E-1,5.0985E4,2.616023E2,1.175752E1,-2.9288527E1,-9.8814865E1,1.335298E4,3.7704062E2,-3.680845E1,-1.1671893E2,1.2E1,2.8059543E4,4.0272366E1,1.4708012E2,9.848254E1,1.8176954E1,-4.7002663E1,-9.658691E-1,-1.7805883E1,1.0097461E1,-2.5758764E1,5.8306885E0,2.3708126E1,-9.6708983E-1],"split_indices":[3,3,4,3,4,3,0,0,4,4,8,1,3,5,4,2,3,3,0,0,8,0,0,0,0,10,3,0,0,4,14,0,0,0,0,0,0,0,0,0,0,0,0],"split_type":[0,0,0,0,0,0,0,0,0,0,0,0,0,0,0,0,0,0,0,0,0,0,0,0,0,0,0,0,0,0,0,0,0,0,0,0,0,0,0,0,0,0,0],"sum_hessian":[7.7E1,6E1,1.7E1,3.7E1,2.3E1,1.4E1,3E0,1.1E1,2.6E1,1.5E1,8E0,1E1,4E0,7E0,1.9E1,4E0,1.1E1,5E0,3E0,1E0,9E0,3E0,1E0,2E0,5E0,1.6E1,3E0,3E0,1E0,6E0,5E0,1E0,4E0,8E0,1E0,1.5E1,1E0,1E0,2E0,3E0,3E0,4E0,1E0],"tree_param":{"num_deleted":"0","num_feature":"24","num_nodes":"43","size_leaf_vector":"1"}},{"base_weights":[7.6730484E1,-5.569442E2,1.0246848E3,-1.4336633E3,-3.8530377E2,6.2482556E2,2.8990164E3,-1.5322469E2,-4.210813E1,-5.206579E2,5.9288963E1,2.790631E2,1.7308564E3,3.3118564E2,6.2382812E1,-4.058814E2,-7.4337177E2,-2.6227246E2,6.071992E2,-5.8003735E2,4.5447083E2,2.2544312E2,4.558047E1,-5.517926E2,-2.6242038E2,-8.4658165E1,-2.5475813E1,-7.933242E1,-4.797484E1,7.063047E1,1.5494141E1,-7.710195E1,-3.5454103E-1,5.7200305E2,3.448633E1,-5.822296E1,-1.3892969E1,1.2048177E0,-3.1341904E1,-2.0267157E1,7.0450845E0,1.7508009E1,6.6433846E1,1.4566553E1,-2.0511524E1],"categories":[],"categories_nodes":[],"categories_segments":[],"categories_sizes":[],"default_left":[0,0,0,0,0,0,0,0,0,0,0,0,0,0,0,0,0,0,0,0,0,0,0,0,0,0,0,0,0,0,0,0,0,0,0,0,0,0,0,0,0,0,0,0,0],"id":30,"left_children":[1,3,5,7,9,11,13,-1,-1,15,17,19,21,-1,-1,23,25,27,29,31,33,-1,-1,35,37,-1,-1,39,-1,-1,-1,-1,-1,41,43,-1,-1,-1,-1,-1,-1,-1,-1,-1,-1],"loss_changes":[4.50221E7,6.219225E6,2.0672688E7,5.3566E4,2.3777905E6,9.460003E6,2.630416E6,0E0,0E0,4.65149E5,1.9211198E6,3.42816E6,2.97793E6,0E0,0E0,3.1571475E5,2.38194E5,2.4043578E5,6.9849E4,4.3766512E5,8.687845E5,0E0,0E0,4.477425E4,1.85744E5,0E0,0E0,1.0664907E5,0E0,0E0,0E0,0E0,0E0,3.96788E5,1.6307177E5,0E0,0E0,0E0,0E0,0E0,0E0,0E0,0E0,0E0,0E0],"parents":[2147483647,0,0,1,1,2,2,3,3,4,4,5,5,6,6,9,9,10,10,11,11,12,12,15,15,16,16,17,17,18,18,19,19,20,20,23,23,24,24,27,27,33,33,34,34],"right_children":[2,4,6,8,10,12,14,-1,-1,16,18,20,22,-1,-1,24,26,28,30,32,34,-1,-1,36,38,-1,-1,40,-1,-1,-1,-1,-1,42,44,-1,-1,-1,-1,-1,-1,-1,-1,-1,-1],"split_conditions":[8.653749E2,7E0,1.7E1,5.634319E3,1E0,3.918257E4,1.1E1,-1.5322469E2,-4.210813E1,1E0,1.3E1,6E0,4.899464E4,3.3118564E2,6.2382812E1,5.905199E-2,2.508524E4,8E0,9.18507E3,2.147638E3,1.3E1,2.2544312E2,4.558047E1,2.1E1,8.2150745E2,-8.4658165E1,-2.5475813E1,1.1E1,-4.797484E1,7.063047E1,1.5494141E1,-7.710195E1,-3.5454103E-1,1.999307E4,1.1E1,-5.822296E1,-1.3892969E1,1.2048177E0,-3.1341904E1,-2.0267157E1,7.0450845E0,1.7508009E1,6.6433846E1,1.4566553E1,-2.0511524E1],"split_indices":[5,4,4,13,21,6,0,0,0,23,4,4,6,0,0,16,12,0,10,5,11,0,0,7,15,0,0,4,0,0,0,0,0,6,4,0,0,0,0,0,0,0,0,0,0],"split_type":[0,0,0,0,0,0,0,0,0,0,0,0,0,0,0,0,0,0,0,0,0,0,0,0,0,0,0,0,0,0,0,0,0,0,0,0,0,0,0,0,0,0,0,0,0],"sum_hessian":[7.3E1,4.4E1,2.9E1,6E0,3.8E1,2.5E1,4E0,5E0,1E0,2.9E1,9E0,2E1,5E0,3E0,1E0,2.1E1,8E0,6E0,3E0,3E0,1.7E1,3E0,2E0,9E0,1.2E1,6E0,2E0,4E0,2E0,2E0,1E0,2E0,1E0,1.3E1,4E0,8E0,1E0,2E0,1E1,2E0,2E0,3E0,1E1,3E0,1E0],"tree_param":{"num_deleted":"0","num_feature":"24","num_nodes":"45","size_leaf_vector":"1"}},{"base_weights":[1.11570984E2,-2.8833167E2,1.4828151E3,-4.6850546E2,5.896109E2,-1.4762129E2,1.9591984E3,-6.414702E2,-1.0615705E2,1.4214363E2,1.098143E3,2.4175537E1,-8.52564E1,7.621691E2,2.3617932E3,-8.0128265E2,-4.016127E2,-6.790824E2,1.0604179E2,-1.3713592E1,2.8128262E2,2.6938868E1,1.2379844E2,9.15772E1,7.387891E0,2.8129707E3,3.7138866E1,-9.720605E1,-5.731862E2,-5.9353656E2,-1.8639008E2,-3.3274414E1,-1.0322176E2,5.9116924E1,-2.4076904E1,5.504346E0,3.2408154E1,6.38084E1,3.032514E2,-2.1528582E1,-6.28799E1,-6.724949E1,-2.3777441E1,-4.0692506E0,-2.524568E1,-1.620262E1,9.760491E0],"categories":[],"categories_nodes":[],"categories_segments":[],"categories_sizes":[],"default_left":[0,0,0,0,0,0,0,0,0,0,0,0,0,0,0,0,0,0,0,0,0,0,0,0,0,0,0,0,0,0,0,0,0,0,0,0,0,0,0,0,0,0,0,0,0,0,0],"id":31,"left_children":[1,3,5,7,9,11,13,15,17,19,21,-1,-1,23,25,27,29,31,33,-1,35,-1,-1,-1,-1,37,-1,-1,39,41,43,-1,-1,-1,45,-1,-1,-1,-1,-1,-1,-1,-1,-1,-1,-1,-1],"loss_changes":[4.3748308E7,1.0083534E7,1.4270052E7,3.190926E6,2.3469718E6,1.578553E6,4.94676E6,1.019822E6,2.2603448E6,3.105847E5,2.45972E5,0E0,0E0,4.609605E5,7.935548E6,2.21905E5,5.5027225E5,2.6805675E5,8.979716E5,0E0,3.0575375E4,0E0,0E0,0E0,0E0,1.88486E6,0E0,0E0,8.35705E4,6.4821E4,7.635875E4,0E0,0E0,0E0,2.1724561E5,0E0,0E0,0E0,0E0,0E0,0E0,0E0,0E0,0E0,0E0,0E0,0E0],"parents":[2147483647,0,0,1,1,2,2,3,3,4,4,5,5,6,6,7,7,8,8,9,9,10,10,13,13,14,14,15,15,16,16,17,17,18,18,20,20,25,25,28,28,29,29,30,30,34,34],"right_children":[2,4,6,8,10,12,14,16,18,20,22,-1,-1,24,26,28,30,32,34,-1,36,-1,-1,-1,-1,38,-1,-1,40,42,44,-1,-1,-1,46,-1,-1,-1,-1,-1,-1,-1,-1,-1,-1,-1,-1],"split_conditions":[2.56552E3,1.4E1,1E1,1.0798484E3,2.1511138E3,9E0,1E1,2.2929609E-2,8E0,5.0647833E2,1.6E1,2.4175537E1,-8.52564E1,5E0,4.918881E4,4.09332E3,3.8897415E2,2.337219E3,5E0,-1.3713592E1,4E0,2.6938868E1,1.2379844E2,9.15772E1,7.387891E0,3E0,3.7138866E1,-9.720605E1,5E0,2.3997574E4,8.916122E2,-3.3274414E1,-1.0322176E2,5.9116924E1,2.218432E3,5.504346E0,3.2408154E1,6.38084E1,3.032514E2,-2.1528582E1,-6.28799E1,-6.724949E1,-2.3777441E1,-4.0692506E0,-2.524568E1,-1.620262E1,9.760491E0],"split_indices":[3,4,4,3,3,0,9,16,4,3,4,0,0,0,8,8,3,3,7,0,0,0,0,0,0,0,0,0,0,12,13,0,0,0,3,0,0,0,0,0,0,0,0,0,0,0,0],"split_type":[0,0,0,0,0,0,0,0,0,0,0,0,0,0,0,0,0,0,0,0,0,0,0,0,0,0,0,0,0,0,0,0,0,0,0,0,0,0,0,0,0,0,0,0,0,0,0],"sum_hessian":[7.8E1,6.1E1,1.7E1,5.1E1,1E1,4E0,1.3E1,3.4E1,1.7E1,6E0,4E0,3E0,1E0,4E0,9E0,1.9E1,1.5E1,4E0,1.3E1,2E0,4E0,1E0,3E0,3E0,1E0,7E0,2E0,9E0,1E1,7E0,8E0,3E0,1E0,2E0,1.1E1,1E0,3E0,1E0,6E0,2E0,8E0,5E0,2E0,3E0,5E0,5E0,6E0],"tree_param":{"num_deleted":"0","num_feature":"24","num_nodes":"47","size_leaf_vector":"1"}},{"base_weights":[5.9876984E1,-5.476627E2,8.26475E2,-1.3228448E3,-4.108534E2,4.7347552E2,2.7791766E2,-1.4468442E2,-3.5142433E1,-4.8081976E2,1.4708867E2,2.1501765E2,1.4714707E3,-3.5318652E2,-6.8538184E2,2.5717505E2,-1.4662842E1,-3.6807715E2,3.7919522E2,1.917772E2,3.8591213E1,-6.95155E1,-3.922614E2,-7.605618E1,-3.448814E1,5.2291503E0,3.0803907E1,-6.0494165E2,7.043457E0,2.152164E2,7.2594305E2,-9.727018E0,6.8742675E-1,-2.7697346E1,-6.1510445E1,-2.6663183E1,-8.099355E1,3.5574394E1,3.7929687E-1,-2.282129E0,8.802602E1],"categories":[],"categories_nodes":[],"categories_segments":[],"categories_sizes":[],"default_left":[0,0,0,0,0,0,0,0,0,0,0,0,0,0,0,0,0,0,0,0,0,0,0,0,0,0,0,0,0,0,0,0,0,0,0,0,0,0,0,0,0],"id":32,"left_children":[1,3,5,7,9,11,-1,-1,-1,13,15,17,19,21,23,25,-1,27,29,-1,-1,31,33,-1,-1,-1,-1,35,-1,37,39,-1,-1,-1,-1,-1,-1,-1,-1,-1,-1],"loss_changes":[3.5848772E7,4.016748E6,2.2120414E7,2.14276E5,1.554136E6,7.4217985E6,0E0,0E0,0E0,6.45636E5,1.9938042E5,2.5328502E6,2.166825E6,2.2767325E5,4.48815E4,2.5576969E4,0E0,6.65816E5,9.80951E5,0E0,0E0,9.149357E3,3.4345475E5,0E0,0E0,0E0,0E0,6.1451125E4,0E0,4.443128E5,7.1337125E5,0E0,0E0,0E0,0E0,0E0,0E0,0E0,0E0,0E0,0E0],"parents":[2147483647,0,0,1,1,2,2,3,3,4,4,5,5,9,9,10,10,11,11,12,12,13,13,14,14,15,15,17,17,18,18,21,21,22,22,27,27,29,29,30,30],"right_children":[2,4,6,8,10,12,-1,-1,-1,14,16,18,20,22,24,26,-1,28,30,-1,-1,32,34,-1,-1,-1,-1,36,-1,38,40,-1,-1,-1,-1,-1,-1,-1,-1,-1,-1],"split_conditions":[6.631509E2,7E0,1.7E1,5.634319E3,1.7E1,3.918257E4,2.7791766E2,-1.4468442E2,-3.5142433E1,1E0,1.9E1,8E0,4.899464E4,2.1449844E2,2.508524E4,4E0,-1.4662842E1,1.314318E4,2.8922605E4,1.917772E2,3.8591213E1,7E0,1E1,-7.605618E1,-3.448814E1,5.2291503E0,3.0803907E1,1E1,7.043457E0,1.2E1,1E1,-9.727018E0,6.8742675E-1,-2.7697346E1,-6.1510445E1,-2.6663183E1,-8.099355E1,3.5574394E1,3.7929687E-1,-2.282129E0,8.802602E1],"split_indices":[5,4,4,13,4,6,0,0,0,23,4,4,6,5,12,0,0,12,12,0,0,0,0,0,0,0,0,2,0,7,4,0,0,0,0,0,0,0,0,0,0],"split_type":[0,0,0,0,0,0,0,0,0,0,0,0,0,0,0,0,0,0,0,0,0,0,0,0,0,0,0,0,0,0,0,0,0,0,0,0,0,0,0,0,0],"sum_hessian":[7.5E1,4.2E1,3.3E1,5E0,3.7E1,2.9E1,4E0,4E0,1E0,3.3E1,4E0,2.4E1,5E0,2.2E1,1.1E1,3E0,1E0,5E0,1.9E1,3E0,2E0,3E0,1.9E1,8E0,3E0,1E0,2E0,3E0,2E0,1.4E1,5E0,2E0,1E0,1.4E1,5E0,2E0,1E0,8E0,6E0,1E0,4E0],"tree_param":{"num_deleted":"0","num_feature":"24","num_nodes":"41","size_leaf_vector":"1"}},{"base_weights":[3.9131695E1,-4.4092648E2,6.415153E2,-6.788095E2,-1.9421545E2,4.0245047E2,1.7299205E3,-1.2101385E2,-5.651697E2,-3.4391495E2,2.872523E2,2.3287529E2,1.4464702E3,2.2411583E2,4.716302E1,-7.099878E1,-3.8213782E2,-5.9002785E1,-2.038694E2,6.2584377E1,9.4365234E1,-1.3872253E2,3.6987067E2,1.8867136E2,6.2870116E0,-1.4828288E1,-4.1762973E2,6.530518E-1,-2.2194695E2,2.7911134E0,1.0400098E1,-1.977694E2,1.3730273E1,5.488574E2,2.0480803E2,-2.0188135E1,-4.9185703E1,-2.511289E1,-5.069141E0,-2.892254E1,2.0580404E0,-2.1680665E0,6.228848E1,1.2713994E1,3.954323E1],"categories":[],"categories_nodes":[],"categories_segments":[],"categories_sizes":[],"default_left":[0,0,0,0,0,0,0,0,0,0,0,0,0,0,0,0,0,0,0,0,0,0,0,0,0,0,0,0,0,0,0,0,0,0,0,0,0,0,0,0,0,0,0,0,0],"id":33,"left_children":[1,3,5,7,9,11,13,-1,15,17,19,21,23,-1,-1,-1,25,-1,27,-1,29,31,33,-1,-1,-1,35,-1,37,-1,-1,39,-1,41,43,-1,-1,-1,-1,-1,-1,-1,-1,-1,-1],"loss_changes":[2.283884E7,2.450453E6,8.410772E6,6.44429E5,1.7565265E6,4.974348E6,2.802716E6,0E0,2.588135E5,5.001175E5,3.3280156E5,1.4258031E6,2.3178645E6,0E0,0E0,0E0,2.937225E4,0E0,5.0895062E4,0E0,2.9888672E2,1.5754169E5,4.7847025E5,0E0,0E0,0E0,4.4833E4,0E0,4.7240875E4,0E0,0E0,1.4573816E5,0E0,3.9362325E5,1.2738984E5,0E0,0E0,0E0,0E0,0E0,0E0,0E0,0E0,0E0,0E0],"parents":[2147483647,0,0,1,1,2,2,3,3,4,4,5,5,6,6,8,8,9,9,10,10,11,11,12,12,16,16,18,18,20,20,21,21,22,22,26,26,28,28,31,31,33,33,34,34],"right_children":[2,4,6,8,10,12,14,-1,16,18,20,22,24,-1,-1,-1,26,-1,28,-1,30,32,34,-1,-1,-1,36,-1,38,-1,-1,40,-1,42,44,-1,-1,-1,-1,-1,-1,-1,-1,-1,-1],"split_conditions":[5.7772107E2,2.2929609E-2,1.7E1,5E0,8.282572E2,3.19742E3,6.683262E3,-1.2101385E2,4.5367728E2,2.65314E3,2E0,2.337219E3,3.664535E3,2.2411583E2,4.716302E1,-7.099878E1,5.93865E2,-5.9002785E1,8.2150745E2,6.2584377E1,1.2E1,1.3E1,5E0,1.8867136E2,6.2870116E0,-1.4828288E1,5E0,6.530518E-1,1.3E1,2.7911134E0,1.0400098E1,9.4902924E2,1.3730273E1,1.22381E4,1.4E1,-2.0188135E1,-4.9185703E1,-2.511289E1,-5.069141E0,-2.892254E1,2.0580404E0,-2.1680665E0,6.228848E1,1.2713994E1,3.954323E1],"split_indices":[5,16,4,4,3,3,13,0,3,6,0,3,3,0,0,0,3,0,15,0,4,4,0,0,0,0,0,0,9,0,0,13,0,6,4,0,0,0,0,0,0,0,0,0,0],"split_type":[0,0,0,0,0,0,0,0,0,0,0,0,0,0,0,0,0,0,0,0,0,0,0,0,0,0,0,0,0,0,0,0,0,0,0,0,0,0,0,0,0,0,0,0,0],"sum_hessian":[7.7E1,4.3E1,3.4E1,2.1E1,2.2E1,2.9E1,5E0,2E0,1.9E1,1.7E1,5E0,2.6E1,3E0,3E0,2E0,9E0,1E1,5E0,1.2E1,1E0,4E0,7E0,1.9E1,2E0,1E0,2E0,8E0,1E0,1.1E1,1E0,3E0,6E0,1E0,8E0,1.1E1,3E0,5E0,9E0,2E0,4E0,2E0,1E0,7E0,9E0,2E0],"tree_param":{"num_deleted":"0","num_feature":"24","num_nodes":"45","size_leaf_vector":"1"}},{"base_weights":[5.8926003E1,-2.0347447E2,1.1605476E3,-4.3368365E2,1.7570874E2,1.446822E2,1.9043613E3,-7.001593E2,-2.6016934E2,-2.74012E1,9.123848E1,4.2739453E2,-7.757959E1,2.1632584E2,4.6041017E0,-8.007641E1,-2.4845625E1,-3.5569052E2,8.5675865E1,-5.910861E2,1.15232605E2,5.0328987E1,2.3958986E0,-4.7059106E2,-2.052209E2,-9.510091E-1,1.2922706E1,-2.2294304E1,-8.477577E1,-8.230359E1,2.7801672E2,-1.7538269E1,-5.7205425E1,-2.4115019E1,5.907129E0,-2.794214E0,2.6515625E0,-2.1900635E1,4.351934E0,9.244792E-2,3.5705387E1],"categories":[],"categories_nodes":[],"categories_segments":[],"categories_sizes":[],"default_left":[0,0,0,0,0,0,0,0,0,0,0,0,0,0,0,0,0,0,0,0,0,0,0,0,0,0,0,0,0,0,0,0,0,0,0,0,0,0,0,0,0],"id":34,"left_children":[1,3,5,7,9,11,13,15,17,19,-1,21,-1,-1,-1,-1,-1,23,25,27,29,-1,-1,31,33,35,-1,-1,-1,37,39,-1,-1,-1,-1,-1,-1,-1,-1,-1,-1],"loss_changes":[2.1048896E7,5.226398E6,1.0303076E7,1.528621E6,3.4664038E6,2.1531845E6,3.749312E6,4.372545E5,8.233269E5,1.5957224E6,0E0,1.7165488E5,0E0,0E0,0E0,0E0,0E0,2.3191675E5,2.2759113E4,1.8896575E5,5.373738E5,0E0,0E0,1.9919925E5,1.0920334E5,2.96497E3,0E0,0E0,0E0,1.4713373E5,1.9677506E5,0E0,0E0,0E0,0E0,0E0,0E0,0E0,0E0,0E0,0E0],"parents":[2147483647,0,0,1,1,2,2,3,3,4,4,5,5,6,6,7,7,8,8,9,9,11,11,17,17,18,18,19,19,20,20,23,23,24,24,25,25,29,29,30,30],"right_children":[2,4,6,8,10,12,14,16,18,20,-1,22,-1,-1,-1,-1,-1,24,26,28,30,-1,-1,32,34,36,-1,-1,-1,38,40,-1,-1,-1,-1,-1,-1,-1,-1,-1,-1],"split_conditions":[2.6834211E3,1.0798484E3,-3.4619984E-3,4.25748E3,6.124486E-1,1.1E1,1E0,3.5961336E-1,4.3045396E-1,-4.651114E-1,9.123848E1,3.19742E3,-7.757959E1,2.1632584E2,4.6041017E0,-8.007641E1,-2.4845625E1,-1.6500449E-1,7.52641E3,1E1,2.3190557E3,5.0328987E1,2.3958986E0,1.1E1,1.258714E4,3E0,1.2922706E1,-2.2294304E1,-8.477577E1,4.25748E3,-3.121333E-1,-1.7538269E1,-5.7205425E1,-2.4115019E1,5.907129E0,-2.794214E0,2.6515625E0,-2.1900635E1,4.351934E0,9.244792E-2,3.5705387E1],"split_indices":[3,3,16,6,16,0,18,16,16,16,0,3,0,0,0,0,0,16,6,0,3,0,0,11,6,0,0,0,0,10,16,0,0,0,0,0,0,0,0,0,0],"split_type":[0,0,0,0,0,0,0,0,0,0,0,0,0,0,0,0,0,0,0,0,0,0,0,0,0,0,0,0,0,0,0,0,0,0,0,0,0,0,0,0,0],"sum_hessian":[7.1E1,5.8E1,1.3E1,3.6E1,2.2E1,6E0,7E0,1.3E1,2.3E1,1.8E1,4E0,5E0,1E0,6E0,1E0,1E1,3E0,1.8E1,5E0,3E0,1.5E1,4E0,1E0,9E0,9E0,2E0,3E0,2E0,1E0,7E0,8E0,3E0,6E0,8E0,1E0,1E0,1E0,3E0,4E0,2E0,6E0],"tree_param":{"num_deleted":"0","num_feature":"24","num_nodes":"41","size_leaf_vector":"1"}},{"base_weights":[6.591063E1,-1.3913507E2,1.3921166E3,-4.5567545E2,2.6952457E2,2.4432382E2,2.116591E2,-1.2945407E2,-3.1476633E2,-1.2924376E2,6.0160156E2,3.530137E1,5.419271E0,-5.6357357E1,-1.8208609E2,-3.1283178E1,7.5086803E0,3.431543E2,9.751546E2,-2.4199576E2,8.198789E1,-1.10448E2,8.489502E1,4.798242E1,5.049693E2,1.0715992E3,2.4646582E1,-2.811348E1,-7.617949E0,1.4187549E1,-7.878125E0,1.8261719E0,-1.5943848E1,-2.6544921E0,1.1249199E1,1.0920182E1,-2.923112E0,1.2826172E1,5.4637695E1,2.7056152E1,1.2042183E2],"categories":[],"categories_nodes":[],"categories_segments":[],"categories_sizes":[],"default_left":[0,0,0,0,0,0,0,0,0,0,0,0,0,0,0,0,0,0,0,0,0,0,0,0,0,0,0,0,0,0,0,0,0,0,0,0,0,0,0,0,0],"id":35,"left_children":[1,3,5,7,9,11,-1,-1,13,15,17,-1,-1,-1,19,-1,21,23,25,27,29,31,33,35,37,39,-1,-1,-1,-1,-1,-1,-1,-1,-1,-1,-1,-1,-1,-1,-1],"loss_changes":[2.031672E7,8.531039E6,7.798334E6,3.9660615E6,3.9179852E6,8.419584E4,0E0,0E0,9.8677025E5,3.5383453E5,1.210072E6,0E0,0E0,0E0,3.8371425E5,0E0,9.153061E4,5.0116612E5,1.57556E5,1.0189125E5,5.9317516E4,2.8133824E4,2.143852E4,2.6826924E4,3.911075E4,2.05349E5,0E0,0E0,0E0,0E0,0E0,0E0,0E0,0E0,0E0,0E0,0E0,0E0,0E0,0E0,0E0],"parents":[2147483647,0,0,1,1,2,2,3,3,4,4,5,5,8,8,9,9,10,10,14,14,16,16,17,17,18,18,19,19,20,20,21,21,22,22,23,23,24,24,25,25],"right_children":[2,4,6,8,10,12,-1,-1,14,16,18,-1,-1,-1,20,-1,22,24,26,28,30,32,34,36,38,40,-1,-1,-1,-1,-1,-1,-1,-1,-1,-1,-1,-1,-1,-1,-1],"split_conditions":[2.8820376E3,1.2E1,1E1,5E0,1.1225684E3,3.19742E3,2.116591E2,-1.2945407E2,4.5367728E2,3.8704364E2,7.8954947E-1,3.530137E1,5.419271E0,-5.6357357E1,1.3460618E3,-3.1283178E1,2.1225746E-1,1.4E1,9E0,2.2929609E-2,2.56552E3,5.0176068E2,3E0,1.3340215E3,2.1511138E3,1.3E1,2.4646582E1,-2.811348E1,-7.617949E0,1.4187549E1,-7.878125E0,1.8261719E0,-1.5943848E1,-2.6544921E0,1.1249199E1,1.0920182E1,-2.923112E0,1.2826172E1,5.4637695E1,2.7056152E1,1.2042183E2],"split_indices":[3,4,4,4,3,3,0,0,3,3,16,0,0,0,5,0,16,4,0,16,3,3,0,5,3,4,0,0,0,0,0,0,0,0,0,0,0,0,0,0,0],"split_type":[0,0,0,0,0,0,0,0,0,0,0,0,0,0,0,0,0,0,0,0,0,0,0,0,0,0,0,0,0,0,0,0,0,0,0,0,0,0,0,0,0],"sum_hessian":[7.3E1,6.4E1,9E0,3.6E1,2.8E1,4E0,5E0,4E0,3.2E1,1.3E1,1.5E1,2E0,2E0,1E1,2.2E1,5E0,8E0,1E1,5E0,1.8E1,4E0,3E0,5E0,4E0,6E0,4E0,1E0,1.4E1,4E0,3E0,1E0,1E0,2E0,1E0,4E0,2E0,2E0,1E0,5E0,1E0,3E0],"tree_param":{"num_deleted":"0","num_feature":"24","num_nodes":"41","size_leaf_vector":"1"}},{"base_weights":[1.2564059E2,-1.7311618E2,9.3667804E2,-3.277127E2,2.300694E2,1.1347721E3,-4.9808072E2,-5.8557874E2,-2.0096808E2,2.0866537E1,4.6617746E2,1.4814285E3,4.2791602E2,-7.4842286E0,-6.722788E1,-7.77583E2,-3.9237872E2,-1.2590277E2,-7.595229E1,2.6941732E1,-8.863616E1,8.635599E1,1.345125E1,1.7987549E2,1.9470264E3,7.933816E1,1.2305351E2,-2.3591822E1,-8.540197E1,-4.1817005E1,-1.0591968E1,-2.0833502E2,1.8579102E1,-1.5892578E2,1.6655079E1,2.6569859E1,-3.8796875E0,2.1316148E2,3.274541E1,5.7073245E0,1.934873E1,-1.9808267E0,-2.3385254E1,-1.2457389E1,1.8664688E1,-1.7832188E1,-3.0972657E0],"categories":[],"categories_nodes":[],"categories_segments":[],"categories_sizes":[],"default_left":[0,0,0,0,0,0,0,0,0,0,0,0,0,0,0,0,0,0,0,0,0,0,0,0,0,0,0,0,0,0,0,0,0,0,0,0,0,0,0,0,0,0,0,0,0,0,0],"id":36,"left_children":[1,3,5,7,9,11,13,15,17,19,21,23,25,-1,-1,27,29,31,-1,-1,33,-1,-1,35,37,-1,39,-1,-1,-1,-1,41,43,45,-1,-1,-1,-1,-1,-1,-1,-1,-1,-1,-1,-1,-1],"loss_changes":[1.712336E7,3.316613E6,5.965333E6,1.1242768E6,7.311898E5,3.531688E6,1.7086706E5,1.4003575E5,1.03643225E6,2.6883294E5,8.06425E5,6.315782E6,6.822886E5,0E0,0E0,5.53625E3,1.4812875E4,3.0161978E5,0E0,0E0,1.5202816E5,0E0,0E0,8.537681E4,1.693626E6,0E0,1.2193258E4,0E0,0E0,0E0,0E0,7.233956E4,2.6384538E5,9.367641E3,0E0,0E0,0E0,0E0,0E0,0E0,0E0,0E0,0E0,0E0,0E0,0E0,0E0],"parents":[2147483647,0,0,1,1,2,2,3,3,4,4,5,5,6,6,7,7,8,8,9,9,10,10,11,11,12,12,15,15,16,16,17,17,20,20,23,23,24,24,26,26,31,31,32,32,33,33],"right_children":[2,4,6,8,10,12,14,16,18,20,22,24,26,-1,-1,28,30,32,-1,-1,34,-1,-1,36,38,-1,40,-1,-1,-1,-1,42,44,46,-1,-1,-1,-1,-1,-1,-1,-1,-1,-1,-1,-1,-1],"split_conditions":[2.56552E3,8.653749E2,1.6479171E3,3.09688E3,8E0,1E0,2.025E3,1.64785E3,2.020623E4,1.2160176E3,2.3741277E3,2.607836E4,3E0,-7.4842286E0,-6.722788E1,1.1058902E2,3.010823E2,8.282572E2,-7.595229E1,2.6941732E1,1E0,8.635599E1,1.345125E1,5E0,1.5728685E3,7.933816E1,1.2303499E3,-2.3591822E1,-8.540197E1,-4.1817005E1,-1.0591968E1,3.551985E3,1.675617E4,7E0,1.6655079E1,2.6569859E1,-3.8796875E0,2.1316148E2,3.274541E1,5.7073245E0,1.934873E1,-1.9808267E0,-2.3385254E1,-1.2457389E1,1.8664688E1,-1.7832188E1,-3.0972657E0],"split_indices":[3,5,5,8,2,18,1,6,6,5,3,8,2,0,0,5,3,3,0,0,18,0,0,2,5,0,5,0,0,0,0,12,12,2,0,0,0,0,0,0,0,0,0,0,0,0,0],"split_type":[0,0,0,0,0,0,0,0,0,0,0,0,0,0,0,0,0,0,0,0,0,0,0,0,0,0,0,0,0,0,0,0,0,0,0,0,0,0,0,0,0,0,0,0,0,0,0],"sum_hessian":[6.9E1,5.1E1,1.8E1,3.7E1,1.4E1,1.6E1,2E0,1.1E1,2.6E1,8E0,6E0,1E1,6E0,1E0,1E0,4E0,7E0,2.4E1,2E0,2E0,6E0,2E0,4E0,3E0,7E0,2E0,4E0,1E0,3E0,6E0,1E0,1.5E1,9E0,5E0,1E0,2E0,1E0,6E0,1E0,3E0,1E0,2E0,1.3E1,5E0,4E0,4E0,1E0],"tree_param":{"num_deleted":"0","num_feature":"24","num_nodes":"47","size_leaf_vector":"1"}},{"base_weights":[2.915713E1,-7.747224E1,1.9145391E3,-3.42127E2,3.411807E2,4.940176E1,2.2233739E2,-1.1017895E2,-2.5966904E2,-4.2058594E1,4.7092993E2,-4.4187177E2,-1.37557E2,-1.7669466E1,3.2269207E1,3.8368774E1,6.8446985E2,-4.579134E2,-1.0062378E1,-3.2448785E2,-4.4473267E-1,1.3601562E2,-1.1681576E2,2.5197592E1,-7.482959E1,3.2939487E2,8.4513434E2,-1.169198E1,-4.739187E1,-3.461872E1,-5.3747315E0,-5.168291E0,7.28162E0,3.542383E0,1.57738285E1,-3.6857421E0,-1.3836621E1,5.245117E0,-1.5158277E1,3.8107384E1,3.55E0,2.0944532E1,9.96839E1],"categories":[],"categories_nodes":[],"categories_segments":[],"categories_sizes":[],"default_left":[0,0,0,0,0,0,0,0,0,0,0,0,0,0,0,0,0,0,0,0,0,0,0,0,0,0,0,0,0,0,0,0,0,0,0,0,0,0,0,0,0,0,0],"id":37,"left_children":[1,3,5,7,9,-1,-1,-1,11,13,15,17,19,-1,21,23,25,27,-1,29,31,33,35,-1,37,39,41,-1,-1,-1,-1,-1,-1,-1,-1,-1,-1,-1,-1,-1,-1,-1,-1],"loss_changes":[1.5025067E7,7.98342E6,6.5644E5,2.470069E6,1.4121065E6,0E0,0E0,0E0,8.514325E5,8.575942E4,1.9134885E6,4.151E4,6.6624906E5,0E0,1.0869095E5,2.1229508E5,5.20289E5,2.645475E4,0E0,4.6017125E4,6.3823457E4,3.152789E3,6.959375E1,0E0,6.656591E4,7.7601E4,6.591495E5,0E0,0E0,0E0,0E0,0E0,0E0,0E0,0E0,0E0,0E0,0E0,0E0,0E0,0E0,0E0,0E0],"parents":[2147483647,0,0,1,1,2,2,3,3,4,4,8,8,9,9,10,10,11,11,12,12,14,14,15,15,16,16,17,17,19,19,20,20,21,21,22,22,24,24,25,25,26,26],"right_children":[2,4,6,8,10,-1,-1,-1,12,14,16,18,20,-1,22,24,26,28,-1,30,32,34,36,-1,38,40,42,-1,-1,-1,-1,-1,-1,-1,-1,-1,-1,-1,-1,-1,-1,-1,-1],"split_conditions":[1.9627094E0,8.653749E2,2E0,5E0,2.135559E3,4.940176E1,2.2233739E2,-1.1017895E2,4.35257E3,1.765897E4,1E1,2.4453366E2,1.1E1,-1.7669466E1,3.217448E4,4.1435684E3,1E1,9.1446365E1,-1.0062378E1,2.1E1,3.303436E-1,1.1493533E3,1.1E1,2.5197592E1,1.2131708E3,1.4305404E3,1.1401819E3,-1.169198E1,-4.739187E1,-3.461872E1,-5.3747315E0,-5.168291E0,7.28162E0,3.542383E0,1.57738285E1,-3.6857421E0,-1.3836621E1,5.245117E0,-1.5158277E1,3.8107384E1,3.55E0,2.0944532E1,9.96839E1],"split_indices":[16,5,0,4,15,0,0,0,6,10,4,5,4,0,10,15,7,5,0,7,16,5,4,0,5,5,5,0,0,0,0,0,0,0,0,0,0,0,0,0,0,0,0],"split_type":[0,0,0,0,0,0,0,0,0,0,0,0,0,0,0,0,0,0,0,0,0,0,0,0,0,0,0,0,0,0,0,0,0,0,0,0,0,0,0,0,0,0,0],"sum_hessian":[7.3E1,7E1,3E0,4.3E1,2.7E1,1E0,2E0,3E0,4E1,7E0,2E1,1.5E1,2.5E1,2E0,5E0,7E0,1.3E1,1.4E1,1E0,1E1,1.5E1,3E0,2E0,2E0,5E0,5E0,8E0,1E0,1.3E1,9E0,1E0,9E0,6E0,1E0,2E0,1E0,1E0,2E0,3E0,4E0,1E0,2E0,6E0],"tree_param":{"num_deleted":"0","num_feature":"24","num_nodes":"43","size_leaf_vector":"1"}},{"base_weights":[4.498651E1,-5.1302837E1,1.7910205E3,-1.9004353E2,6.697993E2,4.693164E1,2.0751497E2,-1.0700531E2,-1.1090402E2,1.1057003E2,1.2106002E3,-2.4276106E2,1.3297559E2,-1.1575244E2,3.0925001E1,1.8155273E1,1.3800993E2,-3.9724173E2,-1.2474143E2,6.2818073E1,3.4491602E2,-1.3099349E1,-3.5014648E0,-1.0342831E1,-4.3182735E1,-2.7718307E1,1.3843149E0,1.7516798E1,1.4082846E-1,1.0049121E1,3.8089943E1],"categories":[],"categories_nodes":[],"categories_segments":[],"categories_sizes":[],"default_left":[0,0,0,0,0,0,0,0,0,0,0,0,0,0,0,0,0,0,0,0,0,0,0,0,0,0,0,0,0,0,0],"id":38,"left_children":[1,3,5,7,9,-1,-1,-1,11,13,15,17,19,21,-1,-1,-1,23,25,27,29,-1,-1,-1,-1,-1,-1,-1,-1,-1,-1],"loss_changes":[1.2869345E7,7.4306645E6,5.28237E5,4.199225E6,3.4953245E6,0E0,0E0,0E0,1.8974015E6,3.5055662E5,7.95975E5,6.43254E5,2.9058653E5,3.3542578E2,0E0,0E0,0E0,1.1792425E5,4.8973653E5,1.1704281E5,5.6990625E3,0E0,0E0,0E0,0E0,0E0,0E0,0E0,0E0,0E0,0E0],"parents":[2147483647,0,0,1,1,2,2,3,3,4,4,8,8,9,9,10,10,11,11,12,12,13,13,17,17,18,18,19,19,20,20],"right_children":[2,4,6,8,10,-1,-1,-1,12,14,16,18,20,22,-1,-1,-1,24,26,28,30,-1,-1,-1,-1,-1,-1,-1,-1,-1,-1],"split_conditions":[1.832594E0,1E0,2E0,5E0,2.607836E4,4.693164E1,2.0751497E2,-1.0700531E2,5.7772107E2,1.1E1,5E0,4.35257E3,1.4E1,2E0,3.0925001E1,1.8155273E1,1.3800993E2,3E0,1.1E1,5E0,2.344522E4,-1.3099349E1,-3.5014648E0,-1.0342831E1,-4.3182735E1,-2.7718307E1,1.3843149E0,1.7516798E1,1.4082846E-1,1.0049121E1,3.8089943E1],"split_indices":[16,17,0,4,8,0,0,0,5,4,0,6,4,2,0,0,0,0,4,0,8,0,0,0,0,0,0,0,0,0,0],"split_type":[0,0,0,0,0,0,0,0,0,0,0,0,0,0,0,0,0,0,0,0,0,0,0,0,0,0,0,0,0,0,0],"sum_hessian":[7.5E1,7.2E1,3E0,6.1E1,1.1E1,1E0,2E0,4E0,5.7E1,6E0,5E0,3.7E1,2E1,3E0,3E0,1E0,4E0,1.5E1,2.2E1,1.6E1,4E0,2E0,1E0,2E0,1.3E1,1E1,1.2E1,5E0,1.1E1,1E0,3E0],"tree_param":{"num_deleted":"0","num_feature":"24","num_nodes":"31","size_leaf_vector":"1"}},{"base_weights":[4.9261852E1,-1.2647746E2,9.384982E2,-2.1657881E2,3.5469727E2,3.1552518E2,1.7475554E2,-7.218963E2,-1.4746213E2,1.0415391E2,5.043672E2,-4.5768543E1,4.9136746E2,-1.9662989E1,-9.353721E1,-2.2287575E2,1.1960751E2,-3.3263671E0,1.4682422E1,1.248151E1,6.6293945E1,5.900169E1,-5.026465E0,-3.9083728E2,-1.367829E2,1.8426671E2,-1.1423926E1,-4.1648094E1,-5.4378543E0,-8.862119E0,-2.8255177E1,3.8853517E0,2.5049772E1],"categories":[],"categories_nodes":[],"categories_segments":[],"categories_sizes":[],"default_left":[0,0,0,0,0,0,0,0,0,0,0,0,0,0,0,0,0,0,0,0,0,0,0,0,0,0,0,0,0,0,0,0,0],"id":39,"left_children":[1,3,5,7,9,11,-1,13,15,17,19,-1,21,-1,-1,23,25,-1,-1,-1,-1,-1,-1,27,29,31,-1,-1,-1,-1,-1,-1,-1],"loss_changes":[1.1370411E7,2.7214438E6,5.496852E6,1.7096928E6,3.2245612E5,1.3125966E6,0E0,4.88868E5,9.7327E5,3.420217E4,2.7837375E5,0E0,4.0367912E5,0E0,0E0,4.8157075E5,1.8737427E5,0E0,0E0,0E0,0E0,0E0,0E0,8.0888625E4,1.5749238E5,7.694506E4,0E0,0E0,0E0,0E0,0E0,0E0,0E0],"parents":[2147483647,0,0,1,1,2,2,3,3,4,4,5,5,7,7,8,8,9,9,10,10,12,12,15,15,16,16,23,23,24,24,25,25],"right_children":[2,4,6,8,10,12,-1,14,16,18,20,-1,22,-1,-1,24,26,-1,-1,-1,-1,-1,-1,28,30,32,-1,-1,-1,-1,-1,-1,-1],"split_conditions":[6.712392E-1,3.587594E4,1.335298E4,-4.954576E-1,1E1,2.65314E2,1.7475554E2,1.2E1,2.235855E3,1.4E1,1.2303499E3,-4.5768543E1,1.2666014E3,-1.9662989E1,-9.353721E1,4.11599E3,1E0,-3.3263671E0,1.4682422E1,1.248151E1,6.6293945E1,5.900169E1,-5.026465E0,3.5961336E-1,5.766784E2,1.3340215E3,-1.1423926E1,-4.1648094E1,-5.4378543E0,-8.862119E0,-2.8255177E1,3.8853517E0,2.5049772E1],"split_indices":[16,6,8,16,9,3,0,2,3,7,5,0,5,0,0,6,22,0,0,0,0,0,0,16,5,5,0,0,0,0,0,0,0],"split_type":[0,0,0,0,0,0,0,0,0,0,0,0,0,0,0,0,0,0,0,0,0,0,0,0,0,0,0,0,0,0,0,0,0],"sum_hessian":[7.1E1,6E1,1.1E1,5.1E1,9E0,7E0,4E0,5E0,4.6E1,4E0,5E0,1E0,6E0,2E0,3E0,3.6E1,1E1,1E0,3E0,2E0,3E0,5E0,1E0,1.1E1,2.5E1,8E0,2E0,1E1,1E0,2E1,5E0,3E0,5E0],"tree_param":{"num_deleted":"0","num_feature":"24","num_nodes":"33","size_leaf_vector":"1"}},{"base_weights":[7.478152E1,-1.3112273E2,6.777213E2,-8.817207E1,-7.199981E1,6.041406E0,1.2816292E3,-1.4319228E2,4.1629242E2,-5.365513E1,1.2594629E2,3.5499462E1,1.6280447E2,-3.7510263E2,-4.348824E1,4.7662764E0,5.5421173E2,-5.965332E0,1.8749666E2,-2.1735396E2,-4.3859033E2,-7.0039375E1,4.163496E1,2.9931837E1,7.868926E1,2.3925274E1,3.8737628E0,-2.4016088E1,-5.165967E0,-8.746741E0,-4.7154724E1,-1.0657668E1,1.1214128E1],"categories":[],"categories_nodes":[],"categories_segments":[],"categories_sizes":[],"default_left":[0,0,0,0,0,0,0,0,0,0,0,0,0,0,0,0,0,0,0,0,0,0,0,0,0,0,0,0,0,0,0,0,0],"id":40,"left_children":[1,3,5,-1,7,9,11,13,15,-1,17,-1,-1,19,21,-1,23,-1,25,27,29,31,-1,-1,-1,-1,-1,-1,-1,-1,-1,-1,-1],"loss_changes":[9.275807E6,2.4216585E6,7.699278E6,0E0,1.9020345E6,7.181717E5,2.632059E6,1.0704401E6,3.2947275E5,0E0,1.1399833E5,0E0,0E0,4.4882125E4,4.4427422E5,0E0,6.1012625E4,0E0,4.4626188E4,1.0267219E4,6.2902375E4,2.3161252E5,0E0,0E0,0E0,0E0,0E0,0E0,0E0,0E0,0E0,0E0,0E0],"parents":[2147483647,0,0,1,1,2,2,4,4,5,5,6,6,7,7,8,8,10,10,13,13,14,14,16,16,18,18,19,19,20,20,21,21],"right_children":[2,4,6,-1,8,10,12,14,16,-1,18,-1,-1,20,22,-1,24,-1,26,28,30,32,-1,-1,-1,-1,-1,-1,-1,-1,-1,-1,-1],"split_conditions":[2.56552E3,5E0,1.2E1,-8.817207E1,1.6E1,5E0,2.607836E3,4.11599E2,8.8233E2,-5.365513E1,2.752193E3,3.5499462E1,1.6280447E2,1.3990866E2,3.8337754E4,4.7662764E0,1.9E1,-5.965332E0,3.0879163E3,1.2838586E2,2.0081125E2,1E0,4.163496E1,2.9931837E1,7.868926E1,2.3925274E1,3.8737628E0,-2.4016088E1,-5.165967E0,-8.746741E0,-4.7154724E1,-1.0657668E1,1.1214128E1],"split_indices":[3,4,4,0,4,4,3,3,3,0,3,0,0,5,12,0,4,0,3,5,13,18,0,0,0,0,0,0,0,0,0,0,0],"split_type":[0,0,0,0,0,0,0,0,0,0,0,0,0,0,0,0,0,0,0,0,0,0,0,0,0,0,0,0,0,0,0,0,0],"sum_hessian":[7.3E1,5.5E1,1.8E1,3E0,5.2E1,9E0,9E0,4.6E1,6E0,1E0,8E0,3E0,6E0,1.3E1,3.3E1,2E0,4E0,2E0,6E0,5E0,8E0,3.2E1,1E0,3E0,1E0,4E0,2E0,4E0,1E0,1E0,7E0,2.7E1,5E0],"tree_param":{"num_deleted":"0","num_feature":"24","num_nodes":"33","size_leaf_vector":"1"}},{"base_weights":[2.8584652E1,-1.2211908E2,8.891074E2,-1.6083301E2,1.1390723E2,3.6213086E2,1.7207837E2,-7.2436676E1,-4.8844714E2,1.7861458E2,6.0845314E1,-1.9080133E2,1.6855359E2,-7.5045525E1,-2.886152E2,1.9689453E1,4.360742E0,-2.9629355E2,-1.3450067E2,7.475488E1,8.564459E1,-3.5493402E2,1.2096778E1,-7.475549E0,-3.1097181E1,-3.8039517E0,-2.450421E1,-4.87972E0,2.2618605E1,-2.0198767E1,-5.4251545E1],"categories":[],"categories_nodes":[],"categories_segments":[],"categories_sizes":[],"default_left":[0,0,0,0,0,0,0,0,0,0,0,0,0,0,0,0,0,0,0,0,0,0,0,0,0,0,0,0,0,0,0],"id":41,"left_children":[1,3,5,7,-1,9,-1,11,13,15,-1,17,19,-1,21,-1,-1,23,25,-1,27,29,-1,-1,-1,-1,-1,-1,-1,-1,-1],"loss_changes":[9.575508E6,3.2592175E6,4.197864E6,1.7601316E6,0E0,2.529545E5,0E0,1.4583968E6,4.6405575E5,6.2214844E3,0E0,1.6208375E5,7.520431E5,0E0,2.874032E5,0E0,0E0,1.25228125E4,2.4658953E5,0E0,3.1335153E5,1.19937625E5,0E0,0E0,0E0,0E0,0E0,0E0,0E0,0E0,0E0],"parents":[2147483647,0,0,1,1,2,2,3,3,5,5,7,7,8,8,9,9,11,11,12,12,14,14,17,17,18,18,20,20,21,21],"right_children":[2,4,6,8,-1,10,-1,12,14,16,-1,18,20,-1,22,-1,-1,24,26,-1,28,30,-1,-1,-1,-1,-1,-1,-1,-1,-1],"split_conditions":[2.8820376E3,1.9627094E0,6E0,1.2E1,1.1390723E2,2.7604833E-1,1.7207837E2,2.218432E3,-4.954576E-1,3.19742E3,6.0845314E1,4.11599E3,2.2905583E3,-7.5045525E1,2.235855E3,1.9689453E1,4.360742E0,9.1446365E1,1.1E1,7.475488E1,1.6442947E4,3.054818E4,1.2096778E1,-7.475549E0,-3.1097181E1,-3.8039517E0,-2.450421E1,-4.87972E0,2.2618605E1,-2.0198767E1,-5.4251545E1],"split_indices":[3,16,0,0,0,16,0,3,16,3,0,6,3,0,3,0,0,5,11,0,14,14,0,0,0,0,0,0,0,0,0],"split_type":[0,0,0,0,0,0,0,0,0,0,0,0,0,0,0,0,0,0,0,0,0,0,0,0,0,0,0,0,0,0,0],"sum_hessian":[7.2E1,6.2E1,1E1,6.1E1,1E0,7E0,3E0,4.9E1,1.2E1,5E0,2E0,3.3E1,1.6E1,4E0,8E0,4E0,1E0,1E1,2.3E1,1E0,1.5E1,7E0,1E0,1E0,9E0,1.3E1,1E1,8E0,7E0,5E0,2E0],"tree_param":{"num_deleted":"0","num_feature":"24","num_nodes":"31","size_leaf_vector":"1"}},{"base_weights":[5.884669E1,-5.4130123E1,7.98609E2,-1.2947209E2,8.9093634E2,1.4504817E2,1.4231602E3,-8.0048515E1,-6.939387E1,2.5761978E1,1.2272741E2,4.0318848E1,2.363379E1,4.2307034E1,1.567415E2,-1.9803008E2,8.5634E1,4.7021484E0,1.0105469E0,-7.705406E1,-2.6676297E2,-4.070359E0,3.4251367E2,-2.21964E1,1.201302E0,-1.3117289E1,-3.296828E1,-1.1264445E1,1.2662559E1,8.693295E0,4.273594E1],"categories":[],"categories_nodes":[],"categories_segments":[],"categories_sizes":[],"default_left":[0,0,0,0,0,0,0,0,0,0,0,0,0,0,0,0,0,0,0,0,0,0,0,0,0,0,0,0,0,0,0],"id":42,"left_children":[1,3,5,7,9,11,13,-1,15,-1,-1,17,-1,-1,-1,19,21,-1,-1,23,25,27,29,-1,-1,-1,-1,-1,-1,-1,-1],"loss_changes":[6.3114275E6,4.8147605E6,3.875395E6,2.443874E6,7.488715E5,4.783539E4,5.8213E4,0E0,1.1736055E6,0E0,0E0,3.3486328E2,0E0,0E0,0E0,2.4552588E5,6.235613E5,0E0,0E0,1.7045362E5,1.2738075E5,3.1225772E5,1.14642875E5,0E0,0E0,0E0,0E0,0E0,0E0,0E0,0E0],"parents":[2147483647,0,0,1,1,2,2,3,3,4,4,5,5,6,6,8,8,11,11,15,15,16,16,19,19,20,20,21,21,22,22],"right_children":[2,4,6,8,10,12,14,-1,16,-1,-1,18,-1,-1,-1,20,22,-1,-1,24,26,28,30,-1,-1,-1,-1,-1,-1,-1,-1],"split_conditions":[1.7E1,3.918257E4,1.658073E4,5E0,2.607836E3,9.902455E2,1.1328256E3,-8.0048515E1,1.3318992E3,2.5761978E1,1.2272741E2,8.8233E2,2.363379E1,4.2307034E1,1.567415E2,1.8595565E3,1.3E1,4.7021484E0,1.0105469E0,3.4111E2,5E0,1.675617E4,6.361825E3,-2.21964E1,1.201302E0,-1.3117289E1,-3.296828E1,-1.1264445E1,1.2662559E1,8.693295E0,4.273594E1],"split_indices":[4,6,8,4,3,3,5,0,3,0,0,3,0,0,0,13,4,0,0,3,0,12,12,0,0,0,0,0,0,0,0],"split_type":[0,0,0,0,0,0,0,0,0,0,0,0,0,0,0,0,0,0,0,0,0,0,0,0,0,0,0,0,0,0,0],"sum_hessian":[7.4E1,6.5E1,9E0,6.1E1,4E0,5E0,4E0,4E0,5.7E1,2E0,2E0,3E0,2E0,1E0,3E0,3.1E1,2.6E1,2E0,1E0,1.2E1,1.9E1,2E1,6E0,4E0,8E0,7E0,1.2E1,1.1E1,9E0,2E0,4E0],"tree_param":{"num_deleted":"0","num_feature":"24","num_nodes":"31","size_leaf_vector":"1"}},{"base_weights":[5.4887596E1,-1.4634474E1,1.292563E3,-7.9860794E1,1.1141782E2,3.1720997E1,1.511944E2,-7.364463E1,-2.8125595E1,-1.5140247E2,2.0357141E2,-3.0218402E2,-9.012806E1,4.639258E1,4.9248267E2,-9.738746E0,-3.334046E1,-2.1612368E1,-2.3033526E0,3.0969587E-1,2.329746E1,1.1820768E1,5.9753975E1],"categories":[],"categories_nodes":[],"categories_segments":[],"categories_sizes":[],"default_left":[0,0,0,0,0,0,0,0,0,0,0,0,0,0,0,0,0,0,0,0,0,0,0],"id":43,"left_children":[1,3,5,7,-1,-1,-1,-1,9,11,13,15,17,19,21,-1,-1,-1,-1,-1,-1,-1,-1],"loss_changes":[6.472348E6,5.390217E6,3.76292E5,2.3231192E6,0E0,0E0,0E0,0E0,1.8874086E6,3.7004394E5,1.0215993E6,4.4257E4,2.6553762E5,1.2852945E5,2.4392812E5,0E0,0E0,0E0,0E0,0E0,0E0,0E0,0E0],"parents":[2147483647,0,0,1,1,2,2,3,3,8,8,9,9,10,10,11,11,12,12,13,13,14,14],"right_children":[2,4,6,8,-1,-1,-1,-1,10,12,14,16,18,20,22,-1,-1,-1,-1,-1,-1,-1,-1],"split_conditions":[1.832594E0,3.217448E3,2E0,5E0,1.1141782E2,3.1720997E1,1.511944E2,-7.364463E1,2.235855E3,3.4111E2,1.3E1,3E0,-2.7064833E-1,3.751715E4,2.246874E4,-9.738746E0,-3.334046E1,-2.1612368E1,-2.3033526E0,3.0969587E-1,2.329746E1,1.1820768E1,5.9753975E1],"split_indices":[16,3,0,4,0,0,0,0,3,3,4,0,16,14,6,0,0,0,0,0,0,0,0],"split_type":[0,0,0,0,0,0,0,0,0,0,0,0,0,0,0,0,0,0,0,0,0,0,0],"sum_hessian":[7.4E1,7.1E1,3E0,6.8E1,3E0,1E0,2E0,4E0,6.4E1,4.2E1,2.2E1,1.1E1,3.1E1,1.5E1,7E0,2E0,9E0,1E1,2.1E1,1.3E1,2E0,2E0,5E0],"tree_param":{"num_deleted":"0","num_feature":"24","num_nodes":"23","size_leaf_vector":"1"}},{"base_weights":[5.8407867E1,-1.3298547E1,1.2090352E3,-8.263719E1,6.823044E2,3.0134962E1,1.4111472E2,-4.97999E2,-2.7263681E1,1.07117775E2,2.2007324E1,-6.0517494E1,-1.5337273E1,-1.0438868E2,3.225252E2,-2.2034978E2,-4.4911102E1,1.013072E2,6.290254E1,-2.5157942E1,1.0843262E1,-1.2580827E1,2.9110582E0,-1.5944824E0,1.9323242E1],"categories":[],"categories_nodes":[],"categories_segments":[],"categories_sizes":[],"default_left":[0,0,0,0,0,0,0,0,0,0,0,0,0,0,0,0,0,0,0,0,0,0,0,0,0],"id":44,"left_children":[1,3,5,7,9,-1,-1,11,13,-1,-1,-1,-1,15,17,19,21,23,-1,-1,-1,-1,-1,-1,-1],"loss_changes":[5.626579E6,3.1914748E6,3.085675E5,1.3664252E6,8.4275875E5,0E0,0E0,1.6573225E5,1.4904512E6,0E0,0E0,0E0,0E0,3.0047262E5,6.1430875E5,1.8129581E5,1.8929481E5,7.852999E4,0E0,0E0,0E0,0E0,0E0,0E0,0E0],"parents":[2147483647,0,0,1,1,2,2,3,3,4,4,7,7,8,8,13,13,14,14,15,15,16,16,17,17],"right_children":[2,4,6,8,10,-1,-1,12,14,-1,-1,-1,-1,16,18,20,22,24,-1,-1,-1,-1,-1,-1,-1],"split_conditions":[1.9627094E0,3.918257E4,2E0,-4.7442663E-1,1.1551325E4,3.0134962E1,1.4111472E2,1.4E1,2.470333E4,1.07117775E2,2.2007324E1,-6.0517494E1,-1.5337273E1,4.11599E3,2.7604833E-1,1E0,1.192544E4,3.078624E4,6.290254E1,-2.5157942E1,1.0843262E1,-1.2580827E1,2.9110582E0,-1.5944824E0,1.9323242E1],"split_indices":[16,6,0,16,12,0,0,7,10,0,0,0,0,6,16,18,12,8,0,0,0,0,0,0,0],"split_type":[0,0,0,0,0,0,0,0,0,0,0,0,0,0,0,0,0,0,0,0,0,0,0,0,0],"sum_hessian":[6.7E1,6.4E1,3E0,5.9E1,5E0,1E0,2E0,6E0,5.3E1,2E0,3E0,4E0,2E0,4.4E1,9E0,1.4E1,3E1,6E0,3E0,1.3E1,1E0,1.4E1,1.6E1,3E0,3E0],"tree_param":{"num_deleted":"0","num_feature":"24","num_nodes":"25","size_leaf_vector":"1"}},{"base_weights":[3.286882E1,-1.4687738E2,2.6953738E2,-6.3618855E1,-7.678459E1,-1.1184867E2,5.1629956E2,-1.2824661E2,9.756912E1,-1.457732E2,9.248047E-1,1.27313675E2,3.5236948E2,-1.6616638E2,-2.5517551E1,-7.306803E0,2.3049072E1,-2.240026E1,-9.8215515E1,-6.337256E0,4.3481445E0,3.911211E2,4.115495E1,-1.995948E2,-1.9276464E1,-8.54657E1,7.078406E1,8.483073E1,-7.4583254E0,-1.0572999E0,-1.2566752E1,1.6613126E2,4.5783273E2,-1.0379297E1,1.655254E1,-2.2617008E1,-5.668262E0,-1.24546385E1,3.8177612E0,-9.556783E0,-1.747754E0,-9.803955E-1,1.0091472E1,2.423535E0,1.0301074E1,2.2544142E1,-3.5554688E0,5.5355762E1,1.5192481E1],"categories":[],"categories_nodes":[],"categories_segments":[],"categories_sizes":[],"default_left":[0,0,0,0,0,0,0,0,0,0,0,0,0,0,0,0,0,0,0,0,0,0,0,0,0,0,0,0,0,0,0,0,0,0,0,0,0,0,0,0,0,0,0,0,0,0,0,0,0],"id":45,"left_children":[1,3,5,-1,7,9,11,13,15,17,19,-1,21,23,25,27,-1,-1,29,-1,-1,31,33,35,37,39,41,43,-1,-1,-1,45,47,-1,-1,-1,-1,-1,-1,-1,-1,-1,-1,-1,